<GAP_2022_10_4_-300_13_21_0_695>
<Potential label="GAP_2022_10_4_-300_13_21_0_695" init_args="IP GAP label=GAP_2022_10_4_-300_13_21_0_695"/>
<GAP_params label="GAP_2022_10_4_-300_13_21_0_695" gap_version="1618098511">
  <GAP_data do_core="F">
    <e0 Z="1" value=".00000000000000000E+000"/>
    <e0 Z="2" value=".00000000000000000E+000"/>
    <e0 Z="3" value=".00000000000000000E+000"/>
    <e0 Z="4" value=".00000000000000000E+000"/>
    <e0 Z="5" value=".00000000000000000E+000"/>
    <e0 Z="6" value=".00000000000000000E+000"/>
    <e0 Z="7" value=".00000000000000000E+000"/>
    <e0 Z="8" value=".00000000000000000E+000"/>
    <e0 Z="9" value=".00000000000000000E+000"/>
    <e0 Z="10" value=".00000000000000000E+000"/>
    <e0 Z="11" value=".00000000000000000E+000"/>
    <e0 Z="12" value=".00000000000000000E+000"/>
    <e0 Z="13" value=".00000000000000000E+000"/>
    <e0 Z="14" value=".00000000000000000E+000"/>
    <e0 Z="15" value=".00000000000000000E+000"/>
    <e0 Z="16" value=".00000000000000000E+000"/>
    <e0 Z="17" value="-.25791123999999999"/>
    <e0 Z="18" value=".00000000000000000E+000"/>
    <e0 Z="19" value=".00000000000000000E+000"/>
    <e0 Z="20" value=".00000000000000000E+000"/>
    <e0 Z="21" value=".00000000000000000E+000"/>
    <e0 Z="22" value=".00000000000000000E+000"/>
    <e0 Z="23" value=".00000000000000000E+000"/>
    <e0 Z="24" value=".00000000000000000E+000"/>
    <e0 Z="25" value=".00000000000000000E+000"/>
    <e0 Z="26" value=".00000000000000000E+000"/>
    <e0 Z="27" value=".00000000000000000E+000"/>
    <e0 Z="28" value=".00000000000000000E+000"/>
    <e0 Z="29" value=".00000000000000000E+000"/>
    <e0 Z="30" value=".00000000000000000E+000"/>
    <e0 Z="31" value=".00000000000000000E+000"/>
    <e0 Z="32" value=".00000000000000000E+000"/>
    <e0 Z="33" value=".00000000000000000E+000"/>
    <e0 Z="34" value=".00000000000000000E+000"/>
    <e0 Z="35" value=".00000000000000000E+000"/>
    <e0 Z="36" value=".00000000000000000E+000"/>
    <e0 Z="37" value=".00000000000000000E+000"/>
    <e0 Z="38" value=".00000000000000000E+000"/>
    <e0 Z="39" value=".00000000000000000E+000"/>
    <e0 Z="40" value=".00000000000000000E+000"/>
    <e0 Z="41" value=".00000000000000000E+000"/>
    <e0 Z="42" value=".00000000000000000E+000"/>
    <e0 Z="43" value=".00000000000000000E+000"/>
    <e0 Z="44" value=".00000000000000000E+000"/>
    <e0 Z="45" value=".00000000000000000E+000"/>
    <e0 Z="46" value=".00000000000000000E+000"/>
    <e0 Z="47" value=".00000000000000000E+000"/>
    <e0 Z="48" value=".00000000000000000E+000"/>
    <e0 Z="49" value=".00000000000000000E+000"/>
    <e0 Z="50" value=".00000000000000000E+000"/>
    <e0 Z="51" value=".00000000000000000E+000"/>
    <e0 Z="52" value=".00000000000000000E+000"/>
    <e0 Z="53" value=".00000000000000000E+000"/>
    <e0 Z="54" value=".00000000000000000E+000"/>
    <e0 Z="55" value=".00000000000000000E+000"/>
    <e0 Z="56" value=".00000000000000000E+000"/>
    <e0 Z="57" value=".00000000000000000E+000"/>
    <e0 Z="58" value=".00000000000000000E+000"/>
    <e0 Z="59" value=".00000000000000000E+000"/>
    <e0 Z="60" value=".00000000000000000E+000"/>
    <e0 Z="61" value=".00000000000000000E+000"/>
    <e0 Z="62" value=".00000000000000000E+000"/>
    <e0 Z="63" value=".00000000000000000E+000"/>
    <e0 Z="64" value=".00000000000000000E+000"/>
    <e0 Z="65" value=".00000000000000000E+000"/>
    <e0 Z="66" value=".00000000000000000E+000"/>
    <e0 Z="67" value=".00000000000000000E+000"/>
    <e0 Z="68" value=".00000000000000000E+000"/>
    <e0 Z="69" value=".00000000000000000E+000"/>
    <e0 Z="70" value=".00000000000000000E+000"/>
    <e0 Z="71" value=".00000000000000000E+000"/>
    <e0 Z="72" value=".00000000000000000E+000"/>
    <e0 Z="73" value=".00000000000000000E+000"/>
    <e0 Z="74" value=".00000000000000000E+000"/>
    <e0 Z="75" value=".00000000000000000E+000"/>
    <e0 Z="76" value=".00000000000000000E+000"/>
    <e0 Z="77" value=".00000000000000000E+000"/>
    <e0 Z="78" value=".00000000000000000E+000"/>
    <e0 Z="79" value=".00000000000000000E+000"/>
    <e0 Z="80" value=".00000000000000000E+000"/>
    <e0 Z="81" value=".00000000000000000E+000"/>
    <e0 Z="82" value=".00000000000000000E+000"/>
    <e0 Z="83" value=".00000000000000000E+000"/>
    <e0 Z="84" value=".00000000000000000E+000"/>
    <e0 Z="85" value=".00000000000000000E+000"/>
    <e0 Z="86" value=".00000000000000000E+000"/>
    <e0 Z="87" value=".00000000000000000E+000"/>
    <e0 Z="88" value=".00000000000000000E+000"/>
    <e0 Z="89" value=".00000000000000000E+000"/>
    <e0 Z="90" value=".00000000000000000E+000"/>
    <e0 Z="91" value=".00000000000000000E+000"/>
    <e0 Z="92" value=".00000000000000000E+000"/>
    <e0 Z="93" value=".00000000000000000E+000"/>
    <e0 Z="94" value=".00000000000000000E+000"/>
    <e0 Z="95" value=".00000000000000000E+000"/>
    <e0 Z="96" value=".00000000000000000E+000"/>
    <e0 Z="97" value=".00000000000000000E+000"/>
    <e0 Z="98" value=".00000000000000000E+000"/>
    <e0 Z="99" value=".00000000000000000E+000"/>
    <e0 Z="100" value=".00000000000000000E+000"/>
    <e0 Z="101" value=".00000000000000000E+000"/>
    <e0 Z="102" value=".00000000000000000E+000"/>
    <e0 Z="103" value=".00000000000000000E+000"/>
    <e0 Z="104" value=".00000000000000000E+000"/>
    <e0 Z="105" value=".00000000000000000E+000"/>
    <e0 Z="106" value=".00000000000000000E+000"/>
    <e0 Z="107" value=".00000000000000000E+000"/>
    <e0 Z="108" value=".00000000000000000E+000"/>
    <e0 Z="109" value=".00000000000000000E+000"/>
    <e0 Z="110" value=".00000000000000000E+000"/>
    <e0 Z="111" value=".00000000000000000E+000"/>
    <e0 Z="112" value=".00000000000000000E+000"/>
    <e0 Z="113" value=".00000000000000000E+000"/>
    <e0 Z="114" value=".00000000000000000E+000"/>
    <e0 Z="115" value=".00000000000000000E+000"/>
    <e0 Z="116" value=".00000000000000000E+000"/>
    <e0 Z="117" value=".00000000000000000E+000"/>
    <e0 Z="118" value=".00000000000000000E+000"/>
  </GAP_data>
  <gpSparse label="GAP_2022_10_4_-300_13_21_0_695" n_coordinate="4">
    <gpCoordinates label="GAP_2022_10_4_-300_13_21_0_6951" dimensions="681" signal_variance=".20000000000000001" signal_mean=".00000000000000000E+000" sparsified="T" n_permutations="1" covariance_type="2" zeta="4.0000000000000000" n_sparseX="200" sparseX_filename="GAP.xml.sparseX.GAP_2022_10_4_-300_13_21_0_6951" sparseX_md5sum="3a9b23ecfc0a61a7e25bec83f6856fe6">
      <descriptor>soap l_max=4 n_max=4 covariance_type=dot_product zeta=4 delta=0.2 cutoff=4 atom_sigma=0.5 n_sparse=200 n_species=4 Z=3 species_Z={3 15 16 17 }</descriptor>
      <permutation i="1">1  </permutation>
      <sparseX i="1" alpha="-433.51742790368809" sparseCutoff="1.0000000000000000"/>
      <sparseX i="2" alpha="-435.71809044844787" sparseCutoff="1.0000000000000000"/>
      <sparseX i="3" alpha="495.72991549994521" sparseCutoff="1.0000000000000000"/>
      <sparseX i="4" alpha="-1117.1569387281718" sparseCutoff="1.0000000000000000"/>
      <sparseX i="5" alpha="-527.14197415744411" sparseCutoff="1.0000000000000000"/>
      <sparseX i="6" alpha="-267.76279779581830" sparseCutoff="1.0000000000000000"/>
      <sparseX i="7" alpha="-757.74287378326414" sparseCutoff="1.0000000000000000"/>
      <sparseX i="8" alpha="1185.9113025410907" sparseCutoff="1.0000000000000000"/>
      <sparseX i="9" alpha="623.89757117270892" sparseCutoff="1.0000000000000000"/>
      <sparseX i="10" alpha="191.44324707362338" sparseCutoff="1.0000000000000000"/>
      <sparseX i="11" alpha="-2157.1960951903670" sparseCutoff="1.0000000000000000"/>
      <sparseX i="12" alpha="-705.57513240657363" sparseCutoff="1.0000000000000000"/>
      <sparseX i="13" alpha="57.210788869582636" sparseCutoff="1.0000000000000000"/>
      <sparseX i="14" alpha="-967.60042722983428" sparseCutoff="1.0000000000000000"/>
      <sparseX i="15" alpha="-85.471909890242756" sparseCutoff="1.0000000000000000"/>
      <sparseX i="16" alpha="-341.74917211226131" sparseCutoff="1.0000000000000000"/>
      <sparseX i="17" alpha="1522.1664716644061" sparseCutoff="1.0000000000000000"/>
      <sparseX i="18" alpha="558.59938212912027" sparseCutoff="1.0000000000000000"/>
      <sparseX i="19" alpha="435.57716986302165" sparseCutoff="1.0000000000000000"/>
      <sparseX i="20" alpha="260.41457017767840" sparseCutoff="1.0000000000000000"/>
      <sparseX i="21" alpha="2342.1031614929880" sparseCutoff="1.0000000000000000"/>
      <sparseX i="22" alpha="-874.59117266704561" sparseCutoff="1.0000000000000000"/>
      <sparseX i="23" alpha="987.33338686501975" sparseCutoff="1.0000000000000000"/>
      <sparseX i="24" alpha="359.08127944906511" sparseCutoff="1.0000000000000000"/>
      <sparseX i="25" alpha="201.82549833049720" sparseCutoff="1.0000000000000000"/>
      <sparseX i="26" alpha="-2476.5515544698851" sparseCutoff="1.0000000000000000"/>
      <sparseX i="27" alpha="-20.772259216319807" sparseCutoff="1.0000000000000000"/>
      <sparseX i="28" alpha="888.36757314238798" sparseCutoff="1.0000000000000000"/>
      <sparseX i="29" alpha="-240.17421135800620" sparseCutoff="1.0000000000000000"/>
      <sparseX i="30" alpha="-788.19931763438990" sparseCutoff="1.0000000000000000"/>
      <sparseX i="31" alpha="459.86358954586331" sparseCutoff="1.0000000000000000"/>
      <sparseX i="32" alpha="-971.68919673513801" sparseCutoff="1.0000000000000000"/>
      <sparseX i="33" alpha="655.23813686407448" sparseCutoff="1.0000000000000000"/>
      <sparseX i="34" alpha="-358.07302476814863" sparseCutoff="1.0000000000000000"/>
      <sparseX i="35" alpha="-753.74141714903408" sparseCutoff="1.0000000000000000"/>
      <sparseX i="36" alpha="311.29390563813195" sparseCutoff="1.0000000000000000"/>
      <sparseX i="37" alpha="82.412616363560261" sparseCutoff="1.0000000000000000"/>
      <sparseX i="38" alpha="786.66319922731634" sparseCutoff="1.0000000000000000"/>
      <sparseX i="39" alpha="-504.45413531039389" sparseCutoff="1.0000000000000000"/>
      <sparseX i="40" alpha="228.77382051304915" sparseCutoff="1.0000000000000000"/>
      <sparseX i="41" alpha="774.04067060258603" sparseCutoff="1.0000000000000000"/>
      <sparseX i="42" alpha="1349.1721908518684" sparseCutoff="1.0000000000000000"/>
      <sparseX i="43" alpha="-125.64427925806129" sparseCutoff="1.0000000000000000"/>
      <sparseX i="44" alpha="832.01917282602335" sparseCutoff="1.0000000000000000"/>
      <sparseX i="45" alpha="-1256.3351678732190" sparseCutoff="1.0000000000000000"/>
      <sparseX i="46" alpha="-326.54194518220481" sparseCutoff="1.0000000000000000"/>
      <sparseX i="47" alpha="380.66764607584810" sparseCutoff="1.0000000000000000"/>
      <sparseX i="48" alpha="-1063.0045790439219" sparseCutoff="1.0000000000000000"/>
      <sparseX i="49" alpha="445.06006273588713" sparseCutoff="1.0000000000000000"/>
      <sparseX i="50" alpha="-336.63464028629051" sparseCutoff="1.0000000000000000"/>
      <sparseX i="51" alpha="-67.796037981173100" sparseCutoff="1.0000000000000000"/>
      <sparseX i="52" alpha="-1009.8328286771492" sparseCutoff="1.0000000000000000"/>
      <sparseX i="53" alpha="-953.21102422139847" sparseCutoff="1.0000000000000000"/>
      <sparseX i="54" alpha="1643.5082271758040" sparseCutoff="1.0000000000000000"/>
      <sparseX i="55" alpha="-19.579637555145979" sparseCutoff="1.0000000000000000"/>
      <sparseX i="56" alpha="717.87582706934575" sparseCutoff="1.0000000000000000"/>
      <sparseX i="57" alpha="1691.5792767257190" sparseCutoff="1.0000000000000000"/>
      <sparseX i="58" alpha="462.41896984324984" sparseCutoff="1.0000000000000000"/>
      <sparseX i="59" alpha="-1215.8156937457134" sparseCutoff="1.0000000000000000"/>
      <sparseX i="60" alpha="-137.15131638365557" sparseCutoff="1.0000000000000000"/>
      <sparseX i="61" alpha="-599.00385860155370" sparseCutoff="1.0000000000000000"/>
      <sparseX i="62" alpha=".55793582049068791" sparseCutoff="1.0000000000000000"/>
      <sparseX i="63" alpha="697.42042004129848" sparseCutoff="1.0000000000000000"/>
      <sparseX i="64" alpha="971.90104532632404" sparseCutoff="1.0000000000000000"/>
      <sparseX i="65" alpha="264.46661379322967" sparseCutoff="1.0000000000000000"/>
      <sparseX i="66" alpha="973.41923217581837" sparseCutoff="1.0000000000000000"/>
      <sparseX i="67" alpha="368.14319597728871" sparseCutoff="1.0000000000000000"/>
      <sparseX i="68" alpha="-904.34365364218104" sparseCutoff="1.0000000000000000"/>
      <sparseX i="69" alpha="153.34539787431422" sparseCutoff="1.0000000000000000"/>
      <sparseX i="70" alpha="209.01319148392699" sparseCutoff="1.0000000000000000"/>
      <sparseX i="71" alpha="-467.57795889436113" sparseCutoff="1.0000000000000000"/>
      <sparseX i="72" alpha="126.02990785279327" sparseCutoff="1.0000000000000000"/>
      <sparseX i="73" alpha="-1855.0988198221846" sparseCutoff="1.0000000000000000"/>
      <sparseX i="74" alpha="676.74291403572147" sparseCutoff="1.0000000000000000"/>
      <sparseX i="75" alpha="-814.55572600039523" sparseCutoff="1.0000000000000000"/>
      <sparseX i="76" alpha="-767.96576923018984" sparseCutoff="1.0000000000000000"/>
      <sparseX i="77" alpha="218.20230695964119" sparseCutoff="1.0000000000000000"/>
      <sparseX i="78" alpha="1532.9589054019750" sparseCutoff="1.0000000000000000"/>
      <sparseX i="79" alpha="-469.04268372591218" sparseCutoff="1.0000000000000000"/>
      <sparseX i="80" alpha="-651.05559485246863" sparseCutoff="1.0000000000000000"/>
      <sparseX i="81" alpha="-378.54762359862423" sparseCutoff="1.0000000000000000"/>
      <sparseX i="82" alpha="-227.23282149570377" sparseCutoff="1.0000000000000000"/>
      <sparseX i="83" alpha="-358.92523933688693" sparseCutoff="1.0000000000000000"/>
      <sparseX i="84" alpha="155.37846679844750" sparseCutoff="1.0000000000000000"/>
      <sparseX i="85" alpha="-1341.1806219575981" sparseCutoff="1.0000000000000000"/>
      <sparseX i="86" alpha="-465.62028905583367" sparseCutoff="1.0000000000000000"/>
      <sparseX i="87" alpha="-408.75841269489257" sparseCutoff="1.0000000000000000"/>
      <sparseX i="88" alpha="-1611.5288616507939" sparseCutoff="1.0000000000000000"/>
      <sparseX i="89" alpha="-808.49744080563187" sparseCutoff="1.0000000000000000"/>
      <sparseX i="90" alpha="-21.410033055017887" sparseCutoff="1.0000000000000000"/>
      <sparseX i="91" alpha="397.76506233586252" sparseCutoff="1.0000000000000000"/>
      <sparseX i="92" alpha="905.65094229005888" sparseCutoff="1.0000000000000000"/>
      <sparseX i="93" alpha="-743.48062092877205" sparseCutoff="1.0000000000000000"/>
      <sparseX i="94" alpha="654.42824321325793" sparseCutoff="1.0000000000000000"/>
      <sparseX i="95" alpha="916.68974586723948" sparseCutoff="1.0000000000000000"/>
      <sparseX i="96" alpha="-841.11657535673783" sparseCutoff="1.0000000000000000"/>
      <sparseX i="97" alpha="-485.79830664724841" sparseCutoff="1.0000000000000000"/>
      <sparseX i="98" alpha="-208.35974804493074" sparseCutoff="1.0000000000000000"/>
      <sparseX i="99" alpha="-809.05558258953340" sparseCutoff="1.0000000000000000"/>
      <sparseX i="100" alpha="2670.6302951359694" sparseCutoff="1.0000000000000000"/>
      <sparseX i="101" alpha="-619.95988055445787" sparseCutoff="1.0000000000000000"/>
      <sparseX i="102" alpha="-1264.1334089020800" sparseCutoff="1.0000000000000000"/>
      <sparseX i="103" alpha="857.11266873682791" sparseCutoff="1.0000000000000000"/>
      <sparseX i="104" alpha="739.98479370076734" sparseCutoff="1.0000000000000000"/>
      <sparseX i="105" alpha="-2542.2702017211404" sparseCutoff="1.0000000000000000"/>
      <sparseX i="106" alpha="1066.8539311840595" sparseCutoff="1.0000000000000000"/>
      <sparseX i="107" alpha="-955.47303209979088" sparseCutoff="1.0000000000000000"/>
      <sparseX i="108" alpha="866.17625301312273" sparseCutoff="1.0000000000000000"/>
      <sparseX i="109" alpha="386.45129789339632" sparseCutoff="1.0000000000000000"/>
      <sparseX i="110" alpha="-782.55677296714146" sparseCutoff="1.0000000000000000"/>
      <sparseX i="111" alpha="-228.64326386416278" sparseCutoff="1.0000000000000000"/>
      <sparseX i="112" alpha="-788.57203610940633" sparseCutoff="1.0000000000000000"/>
      <sparseX i="113" alpha="-425.54115426255743" sparseCutoff="1.0000000000000000"/>
      <sparseX i="114" alpha="275.45006624150415" sparseCutoff="1.0000000000000000"/>
      <sparseX i="115" alpha="23.555490134437303" sparseCutoff="1.0000000000000000"/>
      <sparseX i="116" alpha="-829.87670840365467" sparseCutoff="1.0000000000000000"/>
      <sparseX i="117" alpha="373.30057035072502" sparseCutoff="1.0000000000000000"/>
      <sparseX i="118" alpha="-80.876701632272017" sparseCutoff="1.0000000000000000"/>
      <sparseX i="119" alpha="1232.1219514089200" sparseCutoff="1.0000000000000000"/>
      <sparseX i="120" alpha="698.87523825178619" sparseCutoff="1.0000000000000000"/>
      <sparseX i="121" alpha="18.625951695923188" sparseCutoff="1.0000000000000000"/>
      <sparseX i="122" alpha="1161.8685564252160" sparseCutoff="1.0000000000000000"/>
      <sparseX i="123" alpha="148.97474625295217" sparseCutoff="1.0000000000000000"/>
      <sparseX i="124" alpha="352.04063211191334" sparseCutoff="1.0000000000000000"/>
      <sparseX i="125" alpha="-1313.8221386907751" sparseCutoff="1.0000000000000000"/>
      <sparseX i="126" alpha="-300.06375009189196" sparseCutoff="1.0000000000000000"/>
      <sparseX i="127" alpha="27.084673405494129" sparseCutoff="1.0000000000000000"/>
      <sparseX i="128" alpha="657.68489445676823" sparseCutoff="1.0000000000000000"/>
      <sparseX i="129" alpha="-149.76831234607437" sparseCutoff="1.0000000000000000"/>
      <sparseX i="130" alpha="1126.1407616901993" sparseCutoff="1.0000000000000000"/>
      <sparseX i="131" alpha="680.48546803038630" sparseCutoff="1.0000000000000000"/>
      <sparseX i="132" alpha="-435.64576447340681" sparseCutoff="1.0000000000000000"/>
      <sparseX i="133" alpha="1048.7666969505826" sparseCutoff="1.0000000000000000"/>
      <sparseX i="134" alpha="10.643763370544587" sparseCutoff="1.0000000000000000"/>
      <sparseX i="135" alpha="692.71827968899436" sparseCutoff="1.0000000000000000"/>
      <sparseX i="136" alpha="545.84840210034122" sparseCutoff="1.0000000000000000"/>
      <sparseX i="137" alpha="216.44149679063719" sparseCutoff="1.0000000000000000"/>
      <sparseX i="138" alpha="405.76837803221491" sparseCutoff="1.0000000000000000"/>
      <sparseX i="139" alpha="-1690.7625490485821" sparseCutoff="1.0000000000000000"/>
      <sparseX i="140" alpha="-747.81250346587490" sparseCutoff="1.0000000000000000"/>
      <sparseX i="141" alpha="-689.91389608089366" sparseCutoff="1.0000000000000000"/>
      <sparseX i="142" alpha="-271.61179575330806" sparseCutoff="1.0000000000000000"/>
      <sparseX i="143" alpha="-405.12233527341704" sparseCutoff="1.0000000000000000"/>
      <sparseX i="144" alpha="-388.64058226704554" sparseCutoff="1.0000000000000000"/>
      <sparseX i="145" alpha="-140.63089654040240" sparseCutoff="1.0000000000000000"/>
      <sparseX i="146" alpha="380.82255634256865" sparseCutoff="1.0000000000000000"/>
      <sparseX i="147" alpha="1245.8832911489440" sparseCutoff="1.0000000000000000"/>
      <sparseX i="148" alpha="1641.7521339063360" sparseCutoff="1.0000000000000000"/>
      <sparseX i="149" alpha="340.19907597290961" sparseCutoff="1.0000000000000000"/>
      <sparseX i="150" alpha="474.80409189295239" sparseCutoff="1.0000000000000000"/>
      <sparseX i="151" alpha="173.01266627434930" sparseCutoff="1.0000000000000000"/>
      <sparseX i="152" alpha="16.973888611149178" sparseCutoff="1.0000000000000000"/>
      <sparseX i="153" alpha="-939.61950382163104" sparseCutoff="1.0000000000000000"/>
      <sparseX i="154" alpha="73.900116400281021" sparseCutoff="1.0000000000000000"/>
      <sparseX i="155" alpha="-608.70988243710883" sparseCutoff="1.0000000000000000"/>
      <sparseX i="156" alpha="-130.68105956271594" sparseCutoff="1.0000000000000000"/>
      <sparseX i="157" alpha="-444.78331648453627" sparseCutoff="1.0000000000000000"/>
      <sparseX i="158" alpha="273.30994806199857" sparseCutoff="1.0000000000000000"/>
      <sparseX i="159" alpha="507.33256314252378" sparseCutoff="1.0000000000000000"/>
      <sparseX i="160" alpha="-.25229130180269349" sparseCutoff="1.0000000000000000"/>
      <sparseX i="161" alpha="-956.18404263210925" sparseCutoff="1.0000000000000000"/>
      <sparseX i="162" alpha="589.00022862046342" sparseCutoff="1.0000000000000000"/>
      <sparseX i="163" alpha="-218.78642914695109" sparseCutoff="1.0000000000000000"/>
      <sparseX i="164" alpha="-461.58137130236207" sparseCutoff="1.0000000000000000"/>
      <sparseX i="165" alpha="657.26423975971670" sparseCutoff="1.0000000000000000"/>
      <sparseX i="166" alpha="-172.99334305328759" sparseCutoff="1.0000000000000000"/>
      <sparseX i="167" alpha="-299.77789588942483" sparseCutoff="1.0000000000000000"/>
      <sparseX i="168" alpha="-669.17062875141812" sparseCutoff="1.0000000000000000"/>
      <sparseX i="169" alpha="-694.49909451812357" sparseCutoff="1.0000000000000000"/>
      <sparseX i="170" alpha="382.50277181313839" sparseCutoff="1.0000000000000000"/>
      <sparseX i="171" alpha="-49.071063466368216" sparseCutoff="1.0000000000000000"/>
      <sparseX i="172" alpha="344.12780338812149" sparseCutoff="1.0000000000000000"/>
      <sparseX i="173" alpha="1087.1129398316705" sparseCutoff="1.0000000000000000"/>
      <sparseX i="174" alpha="-1607.8543723580565" sparseCutoff="1.0000000000000000"/>
      <sparseX i="175" alpha="450.74531984227104" sparseCutoff="1.0000000000000000"/>
      <sparseX i="176" alpha="-338.79189976661945" sparseCutoff="1.0000000000000000"/>
      <sparseX i="177" alpha="197.34505391984229" sparseCutoff="1.0000000000000000"/>
      <sparseX i="178" alpha="46.035627120922307" sparseCutoff="1.0000000000000000"/>
      <sparseX i="179" alpha="177.59134358649447" sparseCutoff="1.0000000000000000"/>
      <sparseX i="180" alpha="-384.11737307042443" sparseCutoff="1.0000000000000000"/>
      <sparseX i="181" alpha="41.764829463631870" sparseCutoff="1.0000000000000000"/>
      <sparseX i="182" alpha="169.79932069108938" sparseCutoff="1.0000000000000000"/>
      <sparseX i="183" alpha="527.13767878395618" sparseCutoff="1.0000000000000000"/>
      <sparseX i="184" alpha="2981.2639027363280" sparseCutoff="1.0000000000000000"/>
      <sparseX i="185" alpha="37.607670812033263" sparseCutoff="1.0000000000000000"/>
      <sparseX i="186" alpha="-108.76369224661931" sparseCutoff="1.0000000000000000"/>
      <sparseX i="187" alpha="351.08131854928553" sparseCutoff="1.0000000000000000"/>
      <sparseX i="188" alpha="-268.62376794545588" sparseCutoff="1.0000000000000000"/>
      <sparseX i="189" alpha="-117.65560542985344" sparseCutoff="1.0000000000000000"/>
      <sparseX i="190" alpha="270.89624205417238" sparseCutoff="1.0000000000000000"/>
      <sparseX i="191" alpha="378.68285876129750" sparseCutoff="1.0000000000000000"/>
      <sparseX i="192" alpha="135.64427161265144" sparseCutoff="1.0000000000000000"/>
      <sparseX i="193" alpha="-1898.4706450974570" sparseCutoff="1.0000000000000000"/>
      <sparseX i="194" alpha="-360.30002249503889" sparseCutoff="1.0000000000000000"/>
      <sparseX i="195" alpha="-901.89103167187068" sparseCutoff="1.0000000000000000"/>
      <sparseX i="196" alpha="685.24320154092482" sparseCutoff="1.0000000000000000"/>
      <sparseX i="197" alpha="357.87688053368100" sparseCutoff="1.0000000000000000"/>
      <sparseX i="198" alpha="544.49353367421816" sparseCutoff="1.0000000000000000"/>
      <sparseX i="199" alpha="322.50440661711173" sparseCutoff="1.0000000000000000"/>
      <sparseX i="200" alpha="307.85204195556440" sparseCutoff="1.0000000000000000"/>
    </gpCoordinates>
    <gpCoordinates label="GAP_2022_10_4_-300_13_21_0_6952" dimensions="681" signal_variance=".20000000000000001" signal_mean=".00000000000000000E+000" sparsified="T" n_permutations="1" covariance_type="2" zeta="4.0000000000000000" n_sparseX="200" sparseX_filename="GAP.xml.sparseX.GAP_2022_10_4_-300_13_21_0_6952" sparseX_md5sum="9a1cb1eac1331f1760df93b42733ea41">
      <descriptor>soap l_max=4 n_max=4 covariance_type=dot_product zeta=4 delta=0.2 cutoff=4 atom_sigma=0.5 n_sparse=200 n_species=4 Z=15 species_Z={3 15 16 17 }</descriptor>
      <permutation i="1">1  </permutation>
      <sparseX i="1" alpha="20347.512428498812" sparseCutoff="1.0000000000000000"/>
      <sparseX i="2" alpha="5391.6802179343395" sparseCutoff="1.0000000000000000"/>
      <sparseX i="3" alpha="-2384.6349100730331" sparseCutoff="1.0000000000000000"/>
      <sparseX i="4" alpha="18421.841850320990" sparseCutoff="1.0000000000000000"/>
      <sparseX i="5" alpha="-3539.5957803444580" sparseCutoff="1.0000000000000000"/>
      <sparseX i="6" alpha="-13761.686750594270" sparseCutoff="1.0000000000000000"/>
      <sparseX i="7" alpha="16271.620283669827" sparseCutoff="1.0000000000000000"/>
      <sparseX i="8" alpha="18638.838818788365" sparseCutoff="1.0000000000000000"/>
      <sparseX i="9" alpha="-726.25440011838896" sparseCutoff="1.0000000000000000"/>
      <sparseX i="10" alpha="24679.596328123451" sparseCutoff="1.0000000000000000"/>
      <sparseX i="11" alpha="3144.6712276976345" sparseCutoff="1.0000000000000000"/>
      <sparseX i="12" alpha="-38383.751348124621" sparseCutoff="1.0000000000000000"/>
      <sparseX i="13" alpha="-3515.4133830393166" sparseCutoff="1.0000000000000000"/>
      <sparseX i="14" alpha="-49607.758646770126" sparseCutoff="1.0000000000000000"/>
      <sparseX i="15" alpha="45958.384249658644" sparseCutoff="1.0000000000000000"/>
      <sparseX i="16" alpha="9334.6373798351779" sparseCutoff="1.0000000000000000"/>
      <sparseX i="17" alpha="-73160.399026094834" sparseCutoff="1.0000000000000000"/>
      <sparseX i="18" alpha="-22235.244984565066" sparseCutoff="1.0000000000000000"/>
      <sparseX i="19" alpha="-68492.498244710820" sparseCutoff="1.0000000000000000"/>
      <sparseX i="20" alpha="-38553.107513529627" sparseCutoff="1.0000000000000000"/>
      <sparseX i="21" alpha="-14201.089903707591" sparseCutoff="1.0000000000000000"/>
      <sparseX i="22" alpha="-11478.971259289016" sparseCutoff="1.0000000000000000"/>
      <sparseX i="23" alpha="-29385.720345001588" sparseCutoff="1.0000000000000000"/>
      <sparseX i="24" alpha="22967.531434233326" sparseCutoff="1.0000000000000000"/>
      <sparseX i="25" alpha="-5605.9520158456135" sparseCutoff="1.0000000000000000"/>
      <sparseX i="26" alpha="49650.776656159527" sparseCutoff="1.0000000000000000"/>
      <sparseX i="27" alpha="30442.573190225801" sparseCutoff="1.0000000000000000"/>
      <sparseX i="28" alpha="-106690.45368508887" sparseCutoff="1.0000000000000000"/>
      <sparseX i="29" alpha="-22587.031659024109" sparseCutoff="1.0000000000000000"/>
      <sparseX i="30" alpha="127296.30360175419" sparseCutoff="1.0000000000000000"/>
      <sparseX i="31" alpha="201011.41910039508" sparseCutoff="1.0000000000000000"/>
      <sparseX i="32" alpha="110381.70747014821" sparseCutoff="1.0000000000000000"/>
      <sparseX i="33" alpha="24129.171970200179" sparseCutoff="1.0000000000000000"/>
      <sparseX i="34" alpha="-9083.1535017823026" sparseCutoff="1.0000000000000000"/>
      <sparseX i="35" alpha="27394.665460664342" sparseCutoff="1.0000000000000000"/>
      <sparseX i="36" alpha="30738.518746216607" sparseCutoff="1.0000000000000000"/>
      <sparseX i="37" alpha="41554.303881610387" sparseCutoff="1.0000000000000000"/>
      <sparseX i="38" alpha="5755.1762598828218" sparseCutoff="1.0000000000000000"/>
      <sparseX i="39" alpha="26158.889375435956" sparseCutoff="1.0000000000000000"/>
      <sparseX i="40" alpha="-45114.102125535741" sparseCutoff="1.0000000000000000"/>
      <sparseX i="41" alpha="134109.78788343747" sparseCutoff="1.0000000000000000"/>
      <sparseX i="42" alpha="24895.056090632821" sparseCutoff="1.0000000000000000"/>
      <sparseX i="43" alpha="-116459.81191449509" sparseCutoff="1.0000000000000000"/>
      <sparseX i="44" alpha="8465.8402867984896" sparseCutoff="1.0000000000000000"/>
      <sparseX i="45" alpha="-270015.25474603759" sparseCutoff="1.0000000000000000"/>
      <sparseX i="46" alpha="-155532.27336435512" sparseCutoff="1.0000000000000000"/>
      <sparseX i="47" alpha="-14655.517910622286" sparseCutoff="1.0000000000000000"/>
      <sparseX i="48" alpha="39749.337229548910" sparseCutoff="1.0000000000000000"/>
      <sparseX i="49" alpha="-61787.706153806146" sparseCutoff="1.0000000000000000"/>
      <sparseX i="50" alpha="-28736.893166546430" sparseCutoff="1.0000000000000000"/>
      <sparseX i="51" alpha="-5368.5805014858679" sparseCutoff="1.0000000000000000"/>
      <sparseX i="52" alpha="-1279.7677286114608" sparseCutoff="1.0000000000000000"/>
      <sparseX i="53" alpha="-16083.784154268886" sparseCutoff="1.0000000000000000"/>
      <sparseX i="54" alpha="46445.634933584188" sparseCutoff="1.0000000000000000"/>
      <sparseX i="55" alpha="-67035.832816496652" sparseCutoff="1.0000000000000000"/>
      <sparseX i="56" alpha="53497.926319809645" sparseCutoff="1.0000000000000000"/>
      <sparseX i="57" alpha="-668.04987804731184" sparseCutoff="1.0000000000000000"/>
      <sparseX i="58" alpha="189676.20554214838" sparseCutoff="1.0000000000000000"/>
      <sparseX i="59" alpha="173320.81393896783" sparseCutoff="1.0000000000000000"/>
      <sparseX i="60" alpha="-94866.060158875756" sparseCutoff="1.0000000000000000"/>
      <sparseX i="61" alpha="40574.633931381912" sparseCutoff="1.0000000000000000"/>
      <sparseX i="62" alpha="8071.1465393867093" sparseCutoff="1.0000000000000000"/>
      <sparseX i="63" alpha="-23800.244394689042" sparseCutoff="1.0000000000000000"/>
      <sparseX i="64" alpha="-56413.431091491133" sparseCutoff="1.0000000000000000"/>
      <sparseX i="65" alpha="18961.801840124881" sparseCutoff="1.0000000000000000"/>
      <sparseX i="66" alpha="-43526.403011956179" sparseCutoff="1.0000000000000000"/>
      <sparseX i="67" alpha="-51433.767559732711" sparseCutoff="1.0000000000000000"/>
      <sparseX i="68" alpha="-1268.5826710072802" sparseCutoff="1.0000000000000000"/>
      <sparseX i="69" alpha="-28225.244318552981" sparseCutoff="1.0000000000000000"/>
      <sparseX i="70" alpha="48196.765350560883" sparseCutoff="1.0000000000000000"/>
      <sparseX i="71" alpha="-162879.76292085226" sparseCutoff="1.0000000000000000"/>
      <sparseX i="72" alpha="64267.405854943514" sparseCutoff="1.0000000000000000"/>
      <sparseX i="73" alpha="-51017.110077302619" sparseCutoff="1.0000000000000000"/>
      <sparseX i="74" alpha="-25029.600560356419" sparseCutoff="1.0000000000000000"/>
      <sparseX i="75" alpha="17464.464529707420" sparseCutoff="1.0000000000000000"/>
      <sparseX i="76" alpha="35243.305016349696" sparseCutoff="1.0000000000000000"/>
      <sparseX i="77" alpha="78388.644628178416" sparseCutoff="1.0000000000000000"/>
      <sparseX i="78" alpha="-20731.180324815308" sparseCutoff="1.0000000000000000"/>
      <sparseX i="79" alpha="15564.367756115849" sparseCutoff="1.0000000000000000"/>
      <sparseX i="80" alpha="71051.268349432881" sparseCutoff="1.0000000000000000"/>
      <sparseX i="81" alpha="-8854.2661330561041" sparseCutoff="1.0000000000000000"/>
      <sparseX i="82" alpha="31307.706994899738" sparseCutoff="1.0000000000000000"/>
      <sparseX i="83" alpha="-348930.56777165784" sparseCutoff="1.0000000000000000"/>
      <sparseX i="84" alpha="79536.989032946673" sparseCutoff="1.0000000000000000"/>
      <sparseX i="85" alpha="-10431.929082602852" sparseCutoff="1.0000000000000000"/>
      <sparseX i="86" alpha="107590.94702485231" sparseCutoff="1.0000000000000000"/>
      <sparseX i="87" alpha="2317.7874785653698" sparseCutoff="1.0000000000000000"/>
      <sparseX i="88" alpha="-14819.818024068551" sparseCutoff="1.0000000000000000"/>
      <sparseX i="89" alpha="-84674.437745262927" sparseCutoff="1.0000000000000000"/>
      <sparseX i="90" alpha="-3901.3583887271507" sparseCutoff="1.0000000000000000"/>
      <sparseX i="91" alpha="-37846.192256427399" sparseCutoff="1.0000000000000000"/>
      <sparseX i="92" alpha="-1178.4767938316586" sparseCutoff="1.0000000000000000"/>
      <sparseX i="93" alpha="-8496.5263560425519" sparseCutoff="1.0000000000000000"/>
      <sparseX i="94" alpha="460933.46661934862" sparseCutoff="1.0000000000000000"/>
      <sparseX i="95" alpha="12443.233859268690" sparseCutoff="1.0000000000000000"/>
      <sparseX i="96" alpha="-13475.993875927590" sparseCutoff="1.0000000000000000"/>
      <sparseX i="97" alpha="-139721.05137237863" sparseCutoff="1.0000000000000000"/>
      <sparseX i="98" alpha="8231.6377757962782" sparseCutoff="1.0000000000000000"/>
      <sparseX i="99" alpha="-13354.396467490580" sparseCutoff="1.0000000000000000"/>
      <sparseX i="100" alpha="-793.70727271571513" sparseCutoff="1.0000000000000000"/>
      <sparseX i="101" alpha="76092.949900511201" sparseCutoff="1.0000000000000000"/>
      <sparseX i="102" alpha="-4305.8878623781284" sparseCutoff="1.0000000000000000"/>
      <sparseX i="103" alpha="15611.712151081783" sparseCutoff="1.0000000000000000"/>
      <sparseX i="104" alpha="10569.471167964328" sparseCutoff="1.0000000000000000"/>
      <sparseX i="105" alpha="-277543.47662318771" sparseCutoff="1.0000000000000000"/>
      <sparseX i="106" alpha="-18116.879344117580" sparseCutoff="1.0000000000000000"/>
      <sparseX i="107" alpha="-860.41497424281249" sparseCutoff="1.0000000000000000"/>
      <sparseX i="108" alpha="121640.39277473037" sparseCutoff="1.0000000000000000"/>
      <sparseX i="109" alpha="-8980.1534707938681" sparseCutoff="1.0000000000000000"/>
      <sparseX i="110" alpha="-1239.6746695594732" sparseCutoff="1.0000000000000000"/>
      <sparseX i="111" alpha="3648.2969703521453" sparseCutoff="1.0000000000000000"/>
      <sparseX i="112" alpha="-35454.187241303647" sparseCutoff="1.0000000000000000"/>
      <sparseX i="113" alpha="1935.8563315674814" sparseCutoff="1.0000000000000000"/>
      <sparseX i="114" alpha="-7486.1110433000604" sparseCutoff="1.0000000000000000"/>
      <sparseX i="115" alpha="5786.0322501183955" sparseCutoff="1.0000000000000000"/>
      <sparseX i="116" alpha="-5966.3983569236207" sparseCutoff="1.0000000000000000"/>
      <sparseX i="117" alpha="72060.702226374196" sparseCutoff="1.0000000000000000"/>
      <sparseX i="118" alpha="8065.5285182507296" sparseCutoff="1.0000000000000000"/>
      <sparseX i="119" alpha="463.37480608712792" sparseCutoff="1.0000000000000000"/>
      <sparseX i="120" alpha="5628.9772947054071" sparseCutoff="1.0000000000000000"/>
      <sparseX i="121" alpha="-52426.875926780696" sparseCutoff="1.0000000000000000"/>
      <sparseX i="122" alpha="109.74716176518369" sparseCutoff="1.0000000000000000"/>
      <sparseX i="123" alpha="-30393.003642388765" sparseCutoff="1.0000000000000000"/>
      <sparseX i="124" alpha="381.63174401411084" sparseCutoff="1.0000000000000000"/>
      <sparseX i="125" alpha="10744.606671174881" sparseCutoff="1.0000000000000000"/>
      <sparseX i="126" alpha="3683.2422504556748" sparseCutoff="1.0000000000000000"/>
      <sparseX i="127" alpha="2535.7866609508951" sparseCutoff="1.0000000000000000"/>
      <sparseX i="128" alpha="-451.52464123381912" sparseCutoff="1.0000000000000000"/>
      <sparseX i="129" alpha="-969.69278607035471" sparseCutoff="1.0000000000000000"/>
      <sparseX i="130" alpha="-6983.2668788863739" sparseCutoff="1.0000000000000000"/>
      <sparseX i="131" alpha="-16494.355257976640" sparseCutoff="1.0000000000000000"/>
      <sparseX i="132" alpha="-1679.3826483007338" sparseCutoff="1.0000000000000000"/>
      <sparseX i="133" alpha="2541.3215133121244" sparseCutoff="1.0000000000000000"/>
      <sparseX i="134" alpha="11508.691802150153" sparseCutoff="1.0000000000000000"/>
      <sparseX i="135" alpha="7886.4554219218189" sparseCutoff="1.0000000000000000"/>
      <sparseX i="136" alpha="3720.0942930967749" sparseCutoff="1.0000000000000000"/>
      <sparseX i="137" alpha="-5374.4954563174151" sparseCutoff="1.0000000000000000"/>
      <sparseX i="138" alpha="-138.48336990204675" sparseCutoff="1.0000000000000000"/>
      <sparseX i="139" alpha="-5217.6368715822100" sparseCutoff="1.0000000000000000"/>
      <sparseX i="140" alpha="762.90945775934847" sparseCutoff="1.0000000000000000"/>
      <sparseX i="141" alpha="-657.24134965357314" sparseCutoff="1.0000000000000000"/>
      <sparseX i="142" alpha="2147.6514754037144" sparseCutoff="1.0000000000000000"/>
      <sparseX i="143" alpha="-3586.9452543417542" sparseCutoff="1.0000000000000000"/>
      <sparseX i="144" alpha="-3273.4093208116838" sparseCutoff="1.0000000000000000"/>
      <sparseX i="145" alpha="-882.10011709364323" sparseCutoff="1.0000000000000000"/>
      <sparseX i="146" alpha="-5702.6680684114835" sparseCutoff="1.0000000000000000"/>
      <sparseX i="147" alpha="9364.9012796288662" sparseCutoff="1.0000000000000000"/>
      <sparseX i="148" alpha="-3057.0617026926293" sparseCutoff="1.0000000000000000"/>
      <sparseX i="149" alpha="2473.6989978268375" sparseCutoff="1.0000000000000000"/>
      <sparseX i="150" alpha="-6159.7491629636115" sparseCutoff="1.0000000000000000"/>
      <sparseX i="151" alpha="-14561.312337724397" sparseCutoff="1.0000000000000000"/>
      <sparseX i="152" alpha="261.33425904176556" sparseCutoff="1.0000000000000000"/>
      <sparseX i="153" alpha="4671.4543308172215" sparseCutoff="1.0000000000000000"/>
      <sparseX i="154" alpha="-339.24381177653652" sparseCutoff="1.0000000000000000"/>
      <sparseX i="155" alpha="-7275.7331428926982" sparseCutoff="1.0000000000000000"/>
      <sparseX i="156" alpha="255.14476478097646" sparseCutoff="1.0000000000000000"/>
      <sparseX i="157" alpha="1608.4248759668676" sparseCutoff="1.0000000000000000"/>
      <sparseX i="158" alpha="5839.3992923337946" sparseCutoff="1.0000000000000000"/>
      <sparseX i="159" alpha="-1918.0665513275676" sparseCutoff="1.0000000000000000"/>
      <sparseX i="160" alpha="1544.3274727510211" sparseCutoff="1.0000000000000000"/>
      <sparseX i="161" alpha="676.10453294545539" sparseCutoff="1.0000000000000000"/>
      <sparseX i="162" alpha="-6800.4936119226240" sparseCutoff="1.0000000000000000"/>
      <sparseX i="163" alpha="10145.051029863662" sparseCutoff="1.0000000000000000"/>
      <sparseX i="164" alpha="3375.0775459025954" sparseCutoff="1.0000000000000000"/>
      <sparseX i="165" alpha="40440.235032361023" sparseCutoff="1.0000000000000000"/>
      <sparseX i="166" alpha="3675.8033125617253" sparseCutoff="1.0000000000000000"/>
      <sparseX i="167" alpha="-1319.1960804074870" sparseCutoff="1.0000000000000000"/>
      <sparseX i="168" alpha="-2483.2086403541048" sparseCutoff="1.0000000000000000"/>
      <sparseX i="169" alpha="-2189.6668675045044" sparseCutoff="1.0000000000000000"/>
      <sparseX i="170" alpha="-139.54795107117985" sparseCutoff="1.0000000000000000"/>
      <sparseX i="171" alpha="2050.2365198895445" sparseCutoff="1.0000000000000000"/>
      <sparseX i="172" alpha="9961.1942595580167" sparseCutoff="1.0000000000000000"/>
      <sparseX i="173" alpha="-5762.4052654701427" sparseCutoff="1.0000000000000000"/>
      <sparseX i="174" alpha="536.90501656220897" sparseCutoff="1.0000000000000000"/>
      <sparseX i="175" alpha="-1189.9804045429403" sparseCutoff="1.0000000000000000"/>
      <sparseX i="176" alpha="-1068.4426205610732" sparseCutoff="1.0000000000000000"/>
      <sparseX i="177" alpha="-7538.6817287465756" sparseCutoff="1.0000000000000000"/>
      <sparseX i="178" alpha="-3502.0154638140825" sparseCutoff="1.0000000000000000"/>
      <sparseX i="179" alpha="4198.5095420347989" sparseCutoff="1.0000000000000000"/>
      <sparseX i="180" alpha="-1876.4283341993100" sparseCutoff="1.0000000000000000"/>
      <sparseX i="181" alpha="-657.61229651364295" sparseCutoff="1.0000000000000000"/>
      <sparseX i="182" alpha="1214.6790298909252" sparseCutoff="1.0000000000000000"/>
      <sparseX i="183" alpha="-3229.6406371153080" sparseCutoff="1.0000000000000000"/>
      <sparseX i="184" alpha="3483.7065883887526" sparseCutoff="1.0000000000000000"/>
      <sparseX i="185" alpha="-2910.8198861578094" sparseCutoff="1.0000000000000000"/>
      <sparseX i="186" alpha="-2.7871026010435012" sparseCutoff="1.0000000000000000"/>
      <sparseX i="187" alpha="381.26840824764810" sparseCutoff="1.0000000000000000"/>
      <sparseX i="188" alpha="-6370.9624493633655" sparseCutoff="1.0000000000000000"/>
      <sparseX i="189" alpha="1707.9153710908861" sparseCutoff="1.0000000000000000"/>
      <sparseX i="190" alpha="-2086.7310044339297" sparseCutoff="1.0000000000000000"/>
      <sparseX i="191" alpha="-1869.7347011767279" sparseCutoff="1.0000000000000000"/>
      <sparseX i="192" alpha="3095.7088599374670" sparseCutoff="1.0000000000000000"/>
      <sparseX i="193" alpha="2054.2948747640371" sparseCutoff="1.0000000000000000"/>
      <sparseX i="194" alpha="-352.52325995560108" sparseCutoff="1.0000000000000000"/>
      <sparseX i="195" alpha="-253.21038238609788" sparseCutoff="1.0000000000000000"/>
      <sparseX i="196" alpha="1150.6067165914458" sparseCutoff="1.0000000000000000"/>
      <sparseX i="197" alpha="1043.5838096043403" sparseCutoff="1.0000000000000000"/>
      <sparseX i="198" alpha="3718.9479983030074" sparseCutoff="1.0000000000000000"/>
      <sparseX i="199" alpha="4071.2252142830307" sparseCutoff="1.0000000000000000"/>
      <sparseX i="200" alpha="358.79748373376356" sparseCutoff="1.0000000000000000"/>
    </gpCoordinates>
    <gpCoordinates label="GAP_2022_10_4_-300_13_21_0_6953" dimensions="681" signal_variance=".20000000000000001" signal_mean=".00000000000000000E+000" sparsified="T" n_permutations="1" covariance_type="2" zeta="4.0000000000000000" n_sparseX="200" sparseX_filename="GAP.xml.sparseX.GAP_2022_10_4_-300_13_21_0_6953" sparseX_md5sum="71bc92ac1bc982a1d3379531016b7b59">
      <descriptor>soap l_max=4 n_max=4 covariance_type=dot_product zeta=4 delta=0.2 cutoff=4 atom_sigma=0.5 n_sparse=200 n_species=4 Z=16 species_Z={3 15 16 17 }</descriptor>
      <permutation i="1">1  </permutation>
      <sparseX i="1" alpha="-521.56550523252974" sparseCutoff="1.0000000000000000"/>
      <sparseX i="2" alpha="-2200.3888175875359" sparseCutoff="1.0000000000000000"/>
      <sparseX i="3" alpha="-2256.8929046786307" sparseCutoff="1.0000000000000000"/>
      <sparseX i="4" alpha="-796.35453636898762" sparseCutoff="1.0000000000000000"/>
      <sparseX i="5" alpha="-205.62900066080505" sparseCutoff="1.0000000000000000"/>
      <sparseX i="6" alpha="1419.1542099900944" sparseCutoff="1.0000000000000000"/>
      <sparseX i="7" alpha="476.49580787430978" sparseCutoff="1.0000000000000000"/>
      <sparseX i="8" alpha="-868.52059920375018" sparseCutoff="1.0000000000000000"/>
      <sparseX i="9" alpha="-1915.1395842352956" sparseCutoff="1.0000000000000000"/>
      <sparseX i="10" alpha="577.67073483988122" sparseCutoff="1.0000000000000000"/>
      <sparseX i="11" alpha="1292.0609338153613" sparseCutoff="1.0000000000000000"/>
      <sparseX i="12" alpha="1901.6894767787551" sparseCutoff="1.0000000000000000"/>
      <sparseX i="13" alpha="-94.817792168577327" sparseCutoff="1.0000000000000000"/>
      <sparseX i="14" alpha="742.60407111838049" sparseCutoff="1.0000000000000000"/>
      <sparseX i="15" alpha="-1324.3687748057926" sparseCutoff="1.0000000000000000"/>
      <sparseX i="16" alpha="40.241200226849188" sparseCutoff="1.0000000000000000"/>
      <sparseX i="17" alpha="-549.05975857913040" sparseCutoff="1.0000000000000000"/>
      <sparseX i="18" alpha="-54.138103190973318" sparseCutoff="1.0000000000000000"/>
      <sparseX i="19" alpha="-5451.6802339447340" sparseCutoff="1.0000000000000000"/>
      <sparseX i="20" alpha="-537.69794681303472" sparseCutoff="1.0000000000000000"/>
      <sparseX i="21" alpha="1269.5742215967882" sparseCutoff="1.0000000000000000"/>
      <sparseX i="22" alpha="110.66978646308452" sparseCutoff="1.0000000000000000"/>
      <sparseX i="23" alpha="3373.0300593325760" sparseCutoff="1.0000000000000000"/>
      <sparseX i="24" alpha="-837.78469096999413" sparseCutoff="1.0000000000000000"/>
      <sparseX i="25" alpha="-847.16496832045675" sparseCutoff="1.0000000000000000"/>
      <sparseX i="26" alpha="104.85524015019978" sparseCutoff="1.0000000000000000"/>
      <sparseX i="27" alpha="-321.97478819719981" sparseCutoff="1.0000000000000000"/>
      <sparseX i="28" alpha="-112.84136043696714" sparseCutoff="1.0000000000000000"/>
      <sparseX i="29" alpha="-814.69455540205411" sparseCutoff="1.0000000000000000"/>
      <sparseX i="30" alpha="-120.94314672112297" sparseCutoff="1.0000000000000000"/>
      <sparseX i="31" alpha="5029.7237686619401" sparseCutoff="1.0000000000000000"/>
      <sparseX i="32" alpha="-1637.7361271421505" sparseCutoff="1.0000000000000000"/>
      <sparseX i="33" alpha="-2753.4240025838662" sparseCutoff="1.0000000000000000"/>
      <sparseX i="34" alpha="1275.3910329224923" sparseCutoff="1.0000000000000000"/>
      <sparseX i="35" alpha="1946.7145172390781" sparseCutoff="1.0000000000000000"/>
      <sparseX i="36" alpha="844.57298415858634" sparseCutoff="1.0000000000000000"/>
      <sparseX i="37" alpha="-1236.5035664081918" sparseCutoff="1.0000000000000000"/>
      <sparseX i="38" alpha="2942.1317577582972" sparseCutoff="1.0000000000000000"/>
      <sparseX i="39" alpha="-2788.7196414307682" sparseCutoff="1.0000000000000000"/>
      <sparseX i="40" alpha="940.41220840354424" sparseCutoff="1.0000000000000000"/>
      <sparseX i="41" alpha="-316.87536419959787" sparseCutoff="1.0000000000000000"/>
      <sparseX i="42" alpha="476.66190809717483" sparseCutoff="1.0000000000000000"/>
      <sparseX i="43" alpha="-587.41887272510644" sparseCutoff="1.0000000000000000"/>
      <sparseX i="44" alpha="-1567.3741369276477" sparseCutoff="1.0000000000000000"/>
      <sparseX i="45" alpha="1714.2371009842407" sparseCutoff="1.0000000000000000"/>
      <sparseX i="46" alpha="-1453.9307751478029" sparseCutoff="1.0000000000000000"/>
      <sparseX i="47" alpha="-1099.9611500134183" sparseCutoff="1.0000000000000000"/>
      <sparseX i="48" alpha="1371.6914175488237" sparseCutoff="1.0000000000000000"/>
      <sparseX i="49" alpha="1902.9345248455218" sparseCutoff="1.0000000000000000"/>
      <sparseX i="50" alpha="-715.25260720769745" sparseCutoff="1.0000000000000000"/>
      <sparseX i="51" alpha="692.66475949895414" sparseCutoff="1.0000000000000000"/>
      <sparseX i="52" alpha="-3198.6448038010376" sparseCutoff="1.0000000000000000"/>
      <sparseX i="53" alpha="319.66979718768152" sparseCutoff="1.0000000000000000"/>
      <sparseX i="54" alpha="4239.7661479868211" sparseCutoff="1.0000000000000000"/>
      <sparseX i="55" alpha="-199.54668194400537" sparseCutoff="1.0000000000000000"/>
      <sparseX i="56" alpha="409.42066737885119" sparseCutoff="1.0000000000000000"/>
      <sparseX i="57" alpha="885.33213309769019" sparseCutoff="1.0000000000000000"/>
      <sparseX i="58" alpha="-808.03336184644843" sparseCutoff="1.0000000000000000"/>
      <sparseX i="59" alpha="4168.5291514907731" sparseCutoff="1.0000000000000000"/>
      <sparseX i="60" alpha="-127.31770039449027" sparseCutoff="1.0000000000000000"/>
      <sparseX i="61" alpha="235.84242253021839" sparseCutoff="1.0000000000000000"/>
      <sparseX i="62" alpha="15.457258271456430" sparseCutoff="1.0000000000000000"/>
      <sparseX i="63" alpha="-1853.7784623954972" sparseCutoff="1.0000000000000000"/>
      <sparseX i="64" alpha="-8067.9067389745796" sparseCutoff="1.0000000000000000"/>
      <sparseX i="65" alpha="-181.62366090309638" sparseCutoff="1.0000000000000000"/>
      <sparseX i="66" alpha="-196.36888655267683" sparseCutoff="1.0000000000000000"/>
      <sparseX i="67" alpha="-2609.3804727549041" sparseCutoff="1.0000000000000000"/>
      <sparseX i="68" alpha="-818.32013700410221" sparseCutoff="1.0000000000000000"/>
      <sparseX i="69" alpha="287.28613359517470" sparseCutoff="1.0000000000000000"/>
      <sparseX i="70" alpha="-1161.1488319780324" sparseCutoff="1.0000000000000000"/>
      <sparseX i="71" alpha="-124.52161714253621" sparseCutoff="1.0000000000000000"/>
      <sparseX i="72" alpha="366.87885131175688" sparseCutoff="1.0000000000000000"/>
      <sparseX i="73" alpha="1330.4134114625278" sparseCutoff="1.0000000000000000"/>
      <sparseX i="74" alpha="-1123.3359123534424" sparseCutoff="1.0000000000000000"/>
      <sparseX i="75" alpha="-548.76053483109013" sparseCutoff="1.0000000000000000"/>
      <sparseX i="76" alpha="373.96069037379607" sparseCutoff="1.0000000000000000"/>
      <sparseX i="77" alpha="1027.1395817972368" sparseCutoff="1.0000000000000000"/>
      <sparseX i="78" alpha="2637.3171233287903" sparseCutoff="1.0000000000000000"/>
      <sparseX i="79" alpha="322.11710850098325" sparseCutoff="1.0000000000000000"/>
      <sparseX i="80" alpha="-1472.4464871787302" sparseCutoff="1.0000000000000000"/>
      <sparseX i="81" alpha="-611.28384621917667" sparseCutoff="1.0000000000000000"/>
      <sparseX i="82" alpha="901.39013607396748" sparseCutoff="1.0000000000000000"/>
      <sparseX i="83" alpha="-1522.5004326519422" sparseCutoff="1.0000000000000000"/>
      <sparseX i="84" alpha="-1018.5362959890369" sparseCutoff="1.0000000000000000"/>
      <sparseX i="85" alpha="634.23292437660280" sparseCutoff="1.0000000000000000"/>
      <sparseX i="86" alpha="-1353.5057752494508" sparseCutoff="1.0000000000000000"/>
      <sparseX i="87" alpha="-294.41210778899779" sparseCutoff="1.0000000000000000"/>
      <sparseX i="88" alpha="267.65847384729790" sparseCutoff="1.0000000000000000"/>
      <sparseX i="89" alpha="-836.25872595562771" sparseCutoff="1.0000000000000000"/>
      <sparseX i="90" alpha="781.80655078037273" sparseCutoff="1.0000000000000000"/>
      <sparseX i="91" alpha="-67.768768777347660" sparseCutoff="1.0000000000000000"/>
      <sparseX i="92" alpha="-1597.6379512588144" sparseCutoff="1.0000000000000000"/>
      <sparseX i="93" alpha="1326.8228570341525" sparseCutoff="1.0000000000000000"/>
      <sparseX i="94" alpha="1020.1046769533500" sparseCutoff="1.0000000000000000"/>
      <sparseX i="95" alpha="595.49055093297352" sparseCutoff="1.0000000000000000"/>
      <sparseX i="96" alpha="-300.78761695154117" sparseCutoff="1.0000000000000000"/>
      <sparseX i="97" alpha="1747.1220898046060" sparseCutoff="1.0000000000000000"/>
      <sparseX i="98" alpha="76.331639370078378" sparseCutoff="1.0000000000000000"/>
      <sparseX i="99" alpha="-96.720843728779528" sparseCutoff="1.0000000000000000"/>
      <sparseX i="100" alpha="-158.01432514780313" sparseCutoff="1.0000000000000000"/>
      <sparseX i="101" alpha="-119.33975385458443" sparseCutoff="1.0000000000000000"/>
      <sparseX i="102" alpha="-122.19132409242984" sparseCutoff="1.0000000000000000"/>
      <sparseX i="103" alpha="1803.0843058913804" sparseCutoff="1.0000000000000000"/>
      <sparseX i="104" alpha="2363.3725943705049" sparseCutoff="1.0000000000000000"/>
      <sparseX i="105" alpha="775.14802294473293" sparseCutoff="1.0000000000000000"/>
      <sparseX i="106" alpha="-1264.7121236544826" sparseCutoff="1.0000000000000000"/>
      <sparseX i="107" alpha="1134.8846823380732" sparseCutoff="1.0000000000000000"/>
      <sparseX i="108" alpha="2321.8769961815633" sparseCutoff="1.0000000000000000"/>
      <sparseX i="109" alpha="-1058.1151984733242" sparseCutoff="1.0000000000000000"/>
      <sparseX i="110" alpha="222.05429956814848" sparseCutoff="1.0000000000000000"/>
      <sparseX i="111" alpha="-1805.6060853267461" sparseCutoff="1.0000000000000000"/>
      <sparseX i="112" alpha="589.22870856339136" sparseCutoff="1.0000000000000000"/>
      <sparseX i="113" alpha="-3129.4059973046492" sparseCutoff="1.0000000000000000"/>
      <sparseX i="114" alpha="1160.0767937369544" sparseCutoff="1.0000000000000000"/>
      <sparseX i="115" alpha="-314.19929599510630" sparseCutoff="1.0000000000000000"/>
      <sparseX i="116" alpha="-466.98476278849682" sparseCutoff="1.0000000000000000"/>
      <sparseX i="117" alpha="804.89447088807981" sparseCutoff="1.0000000000000000"/>
      <sparseX i="118" alpha="-713.09420057397347" sparseCutoff="1.0000000000000000"/>
      <sparseX i="119" alpha="-420.95480279555085" sparseCutoff="1.0000000000000000"/>
      <sparseX i="120" alpha="-576.48764065866794" sparseCutoff="1.0000000000000000"/>
      <sparseX i="121" alpha="-959.35885928043183" sparseCutoff="1.0000000000000000"/>
      <sparseX i="122" alpha="-238.57971879794297" sparseCutoff="1.0000000000000000"/>
      <sparseX i="123" alpha="-1032.3158509614364" sparseCutoff="1.0000000000000000"/>
      <sparseX i="124" alpha="-194.01715128337372" sparseCutoff="1.0000000000000000"/>
      <sparseX i="125" alpha="78.510430078862925" sparseCutoff="1.0000000000000000"/>
      <sparseX i="126" alpha="-360.60599561170517" sparseCutoff="1.0000000000000000"/>
      <sparseX i="127" alpha="117.58636646699661" sparseCutoff="1.0000000000000000"/>
      <sparseX i="128" alpha="-888.17983267141233" sparseCutoff="1.0000000000000000"/>
      <sparseX i="129" alpha="-849.61579223047772" sparseCutoff="1.0000000000000000"/>
      <sparseX i="130" alpha="78.615448298671126" sparseCutoff="1.0000000000000000"/>
      <sparseX i="131" alpha="-657.09910337649853" sparseCutoff="1.0000000000000000"/>
      <sparseX i="132" alpha="-1580.3448655463324" sparseCutoff="1.0000000000000000"/>
      <sparseX i="133" alpha="40.879941667918644" sparseCutoff="1.0000000000000000"/>
      <sparseX i="134" alpha="849.69937067251021" sparseCutoff="1.0000000000000000"/>
      <sparseX i="135" alpha="-933.94796564200578" sparseCutoff="1.0000000000000000"/>
      <sparseX i="136" alpha="550.59464175416781" sparseCutoff="1.0000000000000000"/>
      <sparseX i="137" alpha="-364.69606023804363" sparseCutoff="1.0000000000000000"/>
      <sparseX i="138" alpha="343.24654983532565" sparseCutoff="1.0000000000000000"/>
      <sparseX i="139" alpha="-143.49624916636662" sparseCutoff="1.0000000000000000"/>
      <sparseX i="140" alpha="215.19415648300563" sparseCutoff="1.0000000000000000"/>
      <sparseX i="141" alpha="296.12693302170049" sparseCutoff="1.0000000000000000"/>
      <sparseX i="142" alpha="230.47165575991767" sparseCutoff="1.0000000000000000"/>
      <sparseX i="143" alpha="933.67124554267230" sparseCutoff="1.0000000000000000"/>
      <sparseX i="144" alpha="-481.25543784324753" sparseCutoff="1.0000000000000000"/>
      <sparseX i="145" alpha="2074.1348101842082" sparseCutoff="1.0000000000000000"/>
      <sparseX i="146" alpha="963.78360621304637" sparseCutoff="1.0000000000000000"/>
      <sparseX i="147" alpha="-1495.6286022701363" sparseCutoff="1.0000000000000000"/>
      <sparseX i="148" alpha="-258.99399550360511" sparseCutoff="1.0000000000000000"/>
      <sparseX i="149" alpha="-1437.6555221063979" sparseCutoff="1.0000000000000000"/>
      <sparseX i="150" alpha="2227.3495129698176" sparseCutoff="1.0000000000000000"/>
      <sparseX i="151" alpha="2340.8711289936414" sparseCutoff="1.0000000000000000"/>
      <sparseX i="152" alpha="829.61247494986310" sparseCutoff="1.0000000000000000"/>
      <sparseX i="153" alpha="99.573685734196076" sparseCutoff="1.0000000000000000"/>
      <sparseX i="154" alpha="1259.3704523491467" sparseCutoff="1.0000000000000000"/>
      <sparseX i="155" alpha="720.23524999823110" sparseCutoff="1.0000000000000000"/>
      <sparseX i="156" alpha="1198.7437485689950" sparseCutoff="1.0000000000000000"/>
      <sparseX i="157" alpha="140.31560693828445" sparseCutoff="1.0000000000000000"/>
      <sparseX i="158" alpha="219.51246031743392" sparseCutoff="1.0000000000000000"/>
      <sparseX i="159" alpha="-621.08670977966426" sparseCutoff="1.0000000000000000"/>
      <sparseX i="160" alpha="-387.00112221124232" sparseCutoff="1.0000000000000000"/>
      <sparseX i="161" alpha="-112.52155739606289" sparseCutoff="1.0000000000000000"/>
      <sparseX i="162" alpha="1020.2550453836678" sparseCutoff="1.0000000000000000"/>
      <sparseX i="163" alpha="-656.79975875315370" sparseCutoff="1.0000000000000000"/>
      <sparseX i="164" alpha="483.36555341314551" sparseCutoff="1.0000000000000000"/>
      <sparseX i="165" alpha="-403.53136687571987" sparseCutoff="1.0000000000000000"/>
      <sparseX i="166" alpha="-401.91663320716140" sparseCutoff="1.0000000000000000"/>
      <sparseX i="167" alpha="1313.5346039923663" sparseCutoff="1.0000000000000000"/>
      <sparseX i="168" alpha="-488.47229142625002" sparseCutoff="1.0000000000000000"/>
      <sparseX i="169" alpha="556.99006409208698" sparseCutoff="1.0000000000000000"/>
      <sparseX i="170" alpha="-399.57125214699579" sparseCutoff="1.0000000000000000"/>
      <sparseX i="171" alpha="-33.123182488948515" sparseCutoff="1.0000000000000000"/>
      <sparseX i="172" alpha="695.34113432392996" sparseCutoff="1.0000000000000000"/>
      <sparseX i="173" alpha="311.92152920874503" sparseCutoff="1.0000000000000000"/>
      <sparseX i="174" alpha="-40.812825200202816" sparseCutoff="1.0000000000000000"/>
      <sparseX i="175" alpha="157.25728044281385" sparseCutoff="1.0000000000000000"/>
      <sparseX i="176" alpha="270.81646739159021" sparseCutoff="1.0000000000000000"/>
      <sparseX i="177" alpha="383.60407048341767" sparseCutoff="1.0000000000000000"/>
      <sparseX i="178" alpha="55.576118172238424" sparseCutoff="1.0000000000000000"/>
      <sparseX i="179" alpha="16.829253050542334" sparseCutoff="1.0000000000000000"/>
      <sparseX i="180" alpha="1353.6431967618823" sparseCutoff="1.0000000000000000"/>
      <sparseX i="181" alpha="-2361.2657294162004" sparseCutoff="1.0000000000000000"/>
      <sparseX i="182" alpha="391.43652813396176" sparseCutoff="1.0000000000000000"/>
      <sparseX i="183" alpha="-1004.3155401934470" sparseCutoff="1.0000000000000000"/>
      <sparseX i="184" alpha="50.008067636307189" sparseCutoff="1.0000000000000000"/>
      <sparseX i="185" alpha="540.48923022005476" sparseCutoff="1.0000000000000000"/>
      <sparseX i="186" alpha="-102.63374196831400" sparseCutoff="1.0000000000000000"/>
      <sparseX i="187" alpha="-214.10135388590422" sparseCutoff="1.0000000000000000"/>
      <sparseX i="188" alpha="-712.88664455333435" sparseCutoff="1.0000000000000000"/>
      <sparseX i="189" alpha="784.02480809709425" sparseCutoff="1.0000000000000000"/>
      <sparseX i="190" alpha="520.49805968125690" sparseCutoff="1.0000000000000000"/>
      <sparseX i="191" alpha="1944.8531816929847" sparseCutoff="1.0000000000000000"/>
      <sparseX i="192" alpha="-282.96130631559578" sparseCutoff="1.0000000000000000"/>
      <sparseX i="193" alpha="-565.54626192221940" sparseCutoff="1.0000000000000000"/>
      <sparseX i="194" alpha="4.2397574418755806" sparseCutoff="1.0000000000000000"/>
      <sparseX i="195" alpha="541.80313455024839" sparseCutoff="1.0000000000000000"/>
      <sparseX i="196" alpha="716.43527132637871" sparseCutoff="1.0000000000000000"/>
      <sparseX i="197" alpha="-392.24147221735996" sparseCutoff="1.0000000000000000"/>
      <sparseX i="198" alpha="-89.139933820703362" sparseCutoff="1.0000000000000000"/>
      <sparseX i="199" alpha="440.53445996176737" sparseCutoff="1.0000000000000000"/>
      <sparseX i="200" alpha="947.00722929161759" sparseCutoff="1.0000000000000000"/>
    </gpCoordinates>
    <gpCoordinates label="GAP_2022_10_4_-300_13_21_0_6954" dimensions="681" signal_variance=".20000000000000001" signal_mean=".00000000000000000E+000" sparsified="T" n_permutations="1" covariance_type="2" zeta="4.0000000000000000" n_sparseX="200" sparseX_filename="GAP.xml.sparseX.GAP_2022_10_4_-300_13_21_0_6954" sparseX_md5sum="2f099186f64c2225cdfb73438b91f4d0">
      <descriptor>soap l_max=4 n_max=4 covariance_type=dot_product zeta=4 delta=0.2 cutoff=4 atom_sigma=0.5 n_sparse=200 n_species=4 Z=17 species_Z={3 15 16 17 }</descriptor>
      <permutation i="1">1  </permutation>
      <sparseX i="1" alpha="3256.2978379648735" sparseCutoff="1.0000000000000000"/>
      <sparseX i="2" alpha="-556.57412691618492" sparseCutoff="1.0000000000000000"/>
      <sparseX i="3" alpha="-2929.3398883255322" sparseCutoff="1.0000000000000000"/>
      <sparseX i="4" alpha="12245.926832402070" sparseCutoff="1.0000000000000000"/>
      <sparseX i="5" alpha="-27603.974032460726" sparseCutoff="1.0000000000000000"/>
      <sparseX i="6" alpha="4606.4267030676729" sparseCutoff="1.0000000000000000"/>
      <sparseX i="7" alpha="9636.0687351945980" sparseCutoff="1.0000000000000000"/>
      <sparseX i="8" alpha="5968.4385939053172" sparseCutoff="1.0000000000000000"/>
      <sparseX i="9" alpha="82.002079588089202" sparseCutoff="1.0000000000000000"/>
      <sparseX i="10" alpha="3367.3657515644159" sparseCutoff="1.0000000000000000"/>
      <sparseX i="11" alpha="1020.7516957615220" sparseCutoff="1.0000000000000000"/>
      <sparseX i="12" alpha="-2711.6478659681584" sparseCutoff="1.0000000000000000"/>
      <sparseX i="13" alpha="-3995.6605186500842" sparseCutoff="1.0000000000000000"/>
      <sparseX i="14" alpha="293.67550086417504" sparseCutoff="1.0000000000000000"/>
      <sparseX i="15" alpha="2100.0816255900609" sparseCutoff="1.0000000000000000"/>
      <sparseX i="16" alpha="4157.6107197450274" sparseCutoff="1.0000000000000000"/>
      <sparseX i="17" alpha="-41708.065132212505" sparseCutoff="1.0000000000000000"/>
      <sparseX i="18" alpha="70981.846265827146" sparseCutoff="1.0000000000000000"/>
      <sparseX i="19" alpha="219.75137245119691" sparseCutoff="1.0000000000000000"/>
      <sparseX i="20" alpha="-9317.3651465508756" sparseCutoff="1.0000000000000000"/>
      <sparseX i="21" alpha="-11732.344163355578" sparseCutoff="1.0000000000000000"/>
      <sparseX i="22" alpha="-5793.5577956216812" sparseCutoff="1.0000000000000000"/>
      <sparseX i="23" alpha="-14165.011423696134" sparseCutoff="1.0000000000000000"/>
      <sparseX i="24" alpha="-2535.7675166760368" sparseCutoff="1.0000000000000000"/>
      <sparseX i="25" alpha="7764.7242231108539" sparseCutoff="1.0000000000000000"/>
      <sparseX i="26" alpha="455.25345767232977" sparseCutoff="1.0000000000000000"/>
      <sparseX i="27" alpha="280.22716618637679" sparseCutoff="1.0000000000000000"/>
      <sparseX i="28" alpha="-15134.287021242049" sparseCutoff="1.0000000000000000"/>
      <sparseX i="29" alpha="-8926.6496616509503" sparseCutoff="1.0000000000000000"/>
      <sparseX i="30" alpha="82622.073176711026" sparseCutoff="1.0000000000000000"/>
      <sparseX i="31" alpha="-81874.863656353031" sparseCutoff="1.0000000000000000"/>
      <sparseX i="32" alpha="-11786.759824493585" sparseCutoff="1.0000000000000000"/>
      <sparseX i="33" alpha="-1622.6368299742610" sparseCutoff="1.0000000000000000"/>
      <sparseX i="34" alpha="21437.493422379517" sparseCutoff="1.0000000000000000"/>
      <sparseX i="35" alpha="-10223.327585602468" sparseCutoff="1.0000000000000000"/>
      <sparseX i="36" alpha="-4455.0529312300541" sparseCutoff="1.0000000000000000"/>
      <sparseX i="37" alpha="301.55049128983427" sparseCutoff="1.0000000000000000"/>
      <sparseX i="38" alpha="22607.236117620581" sparseCutoff="1.0000000000000000"/>
      <sparseX i="39" alpha="-14075.933808630367" sparseCutoff="1.0000000000000000"/>
      <sparseX i="40" alpha="5361.9221521766503" sparseCutoff="1.0000000000000000"/>
      <sparseX i="41" alpha="-1519.3116199202157" sparseCutoff="1.0000000000000000"/>
      <sparseX i="42" alpha="39207.872568065439" sparseCutoff="1.0000000000000000"/>
      <sparseX i="43" alpha="17181.836784597177" sparseCutoff="1.0000000000000000"/>
      <sparseX i="44" alpha="-103663.05212594046" sparseCutoff="1.0000000000000000"/>
      <sparseX i="45" alpha="53324.861374309112" sparseCutoff="1.0000000000000000"/>
      <sparseX i="46" alpha="1303.9579974918274" sparseCutoff="1.0000000000000000"/>
      <sparseX i="47" alpha="-12390.277389478204" sparseCutoff="1.0000000000000000"/>
      <sparseX i="48" alpha="26631.087052431081" sparseCutoff="1.0000000000000000"/>
      <sparseX i="49" alpha="10147.902327247833" sparseCutoff="1.0000000000000000"/>
      <sparseX i="50" alpha="-1376.4473866800784" sparseCutoff="1.0000000000000000"/>
      <sparseX i="51" alpha="2726.2427628408286" sparseCutoff="1.0000000000000000"/>
      <sparseX i="52" alpha="9746.2738502558695" sparseCutoff="1.0000000000000000"/>
      <sparseX i="53" alpha="7776.3571264257189" sparseCutoff="1.0000000000000000"/>
      <sparseX i="54" alpha="3340.3806182290814" sparseCutoff="1.0000000000000000"/>
      <sparseX i="55" alpha="-51040.773824275981" sparseCutoff="1.0000000000000000"/>
      <sparseX i="56" alpha="-23728.509833448948" sparseCutoff="1.0000000000000000"/>
      <sparseX i="57" alpha="119983.28819085425" sparseCutoff="1.0000000000000000"/>
      <sparseX i="58" alpha="-26558.571696910461" sparseCutoff="1.0000000000000000"/>
      <sparseX i="59" alpha="1583.5594974245680" sparseCutoff="1.0000000000000000"/>
      <sparseX i="60" alpha="206.77931648354419" sparseCutoff="1.0000000000000000"/>
      <sparseX i="61" alpha="-18063.013098292020" sparseCutoff="1.0000000000000000"/>
      <sparseX i="62" alpha="-4473.5142306214093" sparseCutoff="1.0000000000000000"/>
      <sparseX i="63" alpha="-60824.576132927876" sparseCutoff="1.0000000000000000"/>
      <sparseX i="64" alpha="-1316.8499619729398" sparseCutoff="1.0000000000000000"/>
      <sparseX i="65" alpha="3531.1009269986539" sparseCutoff="1.0000000000000000"/>
      <sparseX i="66" alpha="-43056.430547883916" sparseCutoff="1.0000000000000000"/>
      <sparseX i="67" alpha="-25495.651741929221" sparseCutoff="1.0000000000000000"/>
      <sparseX i="68" alpha="26973.898376523128" sparseCutoff="1.0000000000000000"/>
      <sparseX i="69" alpha="15156.515886800211" sparseCutoff="1.0000000000000000"/>
      <sparseX i="70" alpha="-134253.60507553056" sparseCutoff="1.0000000000000000"/>
      <sparseX i="71" alpha="10641.728931330095" sparseCutoff="1.0000000000000000"/>
      <sparseX i="72" alpha="22697.138188500609" sparseCutoff="1.0000000000000000"/>
      <sparseX i="73" alpha="3554.3939316938504" sparseCutoff="1.0000000000000000"/>
      <sparseX i="74" alpha="-2026.7698055402127" sparseCutoff="1.0000000000000000"/>
      <sparseX i="75" alpha="-1872.5467447236231" sparseCutoff="1.0000000000000000"/>
      <sparseX i="76" alpha="138611.51016020696" sparseCutoff="1.0000000000000000"/>
      <sparseX i="77" alpha="-17827.225556882171" sparseCutoff="1.0000000000000000"/>
      <sparseX i="78" alpha="79858.843059984676" sparseCutoff="1.0000000000000000"/>
      <sparseX i="79" alpha="36076.668652052947" sparseCutoff="1.0000000000000000"/>
      <sparseX i="80" alpha="2333.9771580178476" sparseCutoff="1.0000000000000000"/>
      <sparseX i="81" alpha="112214.48891022929" sparseCutoff="1.0000000000000000"/>
      <sparseX i="82" alpha="-11190.023268378574" sparseCutoff="1.0000000000000000"/>
      <sparseX i="83" alpha="-69418.111842595201" sparseCutoff="1.0000000000000000"/>
      <sparseX i="84" alpha="-9960.7707606823842" sparseCutoff="1.0000000000000000"/>
      <sparseX i="85" alpha="1428.1535416603763" sparseCutoff="1.0000000000000000"/>
      <sparseX i="86" alpha="5976.0783176768737" sparseCutoff="1.0000000000000000"/>
      <sparseX i="87" alpha="-191422.71659440600" sparseCutoff="1.0000000000000000"/>
      <sparseX i="88" alpha="-1693.2858911629837" sparseCutoff="1.0000000000000000"/>
      <sparseX i="89" alpha="24734.894874313715" sparseCutoff="1.0000000000000000"/>
      <sparseX i="90" alpha="-77970.753691973470" sparseCutoff="1.0000000000000000"/>
      <sparseX i="91" alpha="-14509.758022672362" sparseCutoff="1.0000000000000000"/>
      <sparseX i="92" alpha="-2263.7029316238786" sparseCutoff="1.0000000000000000"/>
      <sparseX i="93" alpha="-3936.6709704631162" sparseCutoff="1.0000000000000000"/>
      <sparseX i="94" alpha="-50850.682239732632" sparseCutoff="1.0000000000000000"/>
      <sparseX i="95" alpha="105803.82183222372" sparseCutoff="1.0000000000000000"/>
      <sparseX i="96" alpha="19836.255882170168" sparseCutoff="1.0000000000000000"/>
      <sparseX i="97" alpha="-7695.7491511944345" sparseCutoff="1.0000000000000000"/>
      <sparseX i="98" alpha="-8175.3704976640038" sparseCutoff="1.0000000000000000"/>
      <sparseX i="99" alpha="180824.33107605932" sparseCutoff="1.0000000000000000"/>
      <sparseX i="100" alpha="2261.3063827548967" sparseCutoff="1.0000000000000000"/>
      <sparseX i="101" alpha="-14151.163890780826" sparseCutoff="1.0000000000000000"/>
      <sparseX i="102" alpha="31791.428526763797" sparseCutoff="1.0000000000000000"/>
      <sparseX i="103" alpha="5300.4946337560641" sparseCutoff="1.0000000000000000"/>
      <sparseX i="104" alpha="-8625.7867599653982" sparseCutoff="1.0000000000000000"/>
      <sparseX i="105" alpha="3925.8222263501552" sparseCutoff="1.0000000000000000"/>
      <sparseX i="106" alpha="-82242.057784702018" sparseCutoff="1.0000000000000000"/>
      <sparseX i="107" alpha="-14737.827045414420" sparseCutoff="1.0000000000000000"/>
      <sparseX i="108" alpha="6828.6576319817959" sparseCutoff="1.0000000000000000"/>
      <sparseX i="109" alpha="8762.4342447229865" sparseCutoff="1.0000000000000000"/>
      <sparseX i="110" alpha="-113715.18472946748" sparseCutoff="1.0000000000000000"/>
      <sparseX i="111" alpha="2604.0704813561347" sparseCutoff="1.0000000000000000"/>
      <sparseX i="112" alpha="-1735.3717150863997" sparseCutoff="1.0000000000000000"/>
      <sparseX i="113" alpha="1106.4393710109091" sparseCutoff="1.0000000000000000"/>
      <sparseX i="114" alpha="686.86237592193720" sparseCutoff="1.0000000000000000"/>
      <sparseX i="115" alpha="-286.84401887170930" sparseCutoff="1.0000000000000000"/>
      <sparseX i="116" alpha="5112.3844673276699" sparseCutoff="1.0000000000000000"/>
      <sparseX i="117" alpha="9130.2327652079621" sparseCutoff="1.0000000000000000"/>
      <sparseX i="118" alpha="-2508.3567123699195" sparseCutoff="1.0000000000000000"/>
      <sparseX i="119" alpha="24722.645936686113" sparseCutoff="1.0000000000000000"/>
      <sparseX i="120" alpha="-119.02256370194624" sparseCutoff="1.0000000000000000"/>
      <sparseX i="121" alpha="4250.8456049717406" sparseCutoff="1.0000000000000000"/>
      <sparseX i="122" alpha="858.51962520139500" sparseCutoff="1.0000000000000000"/>
      <sparseX i="123" alpha="-5138.8857499358783" sparseCutoff="1.0000000000000000"/>
      <sparseX i="124" alpha="34502.340295448674" sparseCutoff="1.0000000000000000"/>
      <sparseX i="125" alpha="-1307.9399313029676" sparseCutoff="1.0000000000000000"/>
      <sparseX i="126" alpha="-17411.962488183526" sparseCutoff="1.0000000000000000"/>
      <sparseX i="127" alpha="2864.9663169757678" sparseCutoff="1.0000000000000000"/>
      <sparseX i="128" alpha="-4973.6008228918145" sparseCutoff="1.0000000000000000"/>
      <sparseX i="129" alpha="-2823.4587015521142" sparseCutoff="1.0000000000000000"/>
      <sparseX i="130" alpha="1034.3706397281846" sparseCutoff="1.0000000000000000"/>
      <sparseX i="131" alpha="13331.890623355996" sparseCutoff="1.0000000000000000"/>
      <sparseX i="132" alpha="-1895.5808230760490" sparseCutoff="1.0000000000000000"/>
      <sparseX i="133" alpha="1692.7157576983589" sparseCutoff="1.0000000000000000"/>
      <sparseX i="134" alpha="-678.87711703407683" sparseCutoff="1.0000000000000000"/>
      <sparseX i="135" alpha="-2765.7745024300111" sparseCutoff="1.0000000000000000"/>
      <sparseX i="136" alpha="-2081.1575615360239" sparseCutoff="1.0000000000000000"/>
      <sparseX i="137" alpha="-494.57953002635696" sparseCutoff="1.0000000000000000"/>
      <sparseX i="138" alpha="2057.5887587572965" sparseCutoff="1.0000000000000000"/>
      <sparseX i="139" alpha="2080.4502346684126" sparseCutoff="1.0000000000000000"/>
      <sparseX i="140" alpha="-1465.4573724616914" sparseCutoff="1.0000000000000000"/>
      <sparseX i="141" alpha="-853.19150970309772" sparseCutoff="1.0000000000000000"/>
      <sparseX i="142" alpha="441.30859292372810" sparseCutoff="1.0000000000000000"/>
      <sparseX i="143" alpha="-1660.8282251153178" sparseCutoff="1.0000000000000000"/>
      <sparseX i="144" alpha="-8364.0332491349764" sparseCutoff="1.0000000000000000"/>
      <sparseX i="145" alpha="-1691.7807730050170" sparseCutoff="1.0000000000000000"/>
      <sparseX i="146" alpha="2419.2604020601589" sparseCutoff="1.0000000000000000"/>
      <sparseX i="147" alpha="-1489.9688029940473" sparseCutoff="1.0000000000000000"/>
      <sparseX i="148" alpha="1523.6024690271379" sparseCutoff="1.0000000000000000"/>
      <sparseX i="149" alpha="610.20017530893745" sparseCutoff="1.0000000000000000"/>
      <sparseX i="150" alpha="-2154.1464645660394" sparseCutoff="1.0000000000000000"/>
      <sparseX i="151" alpha="3395.6748118933738" sparseCutoff="1.0000000000000000"/>
      <sparseX i="152" alpha="1528.6399118687900" sparseCutoff="1.0000000000000000"/>
      <sparseX i="153" alpha="789.81695277188931" sparseCutoff="1.0000000000000000"/>
      <sparseX i="154" alpha="299.17844577569934" sparseCutoff="1.0000000000000000"/>
      <sparseX i="155" alpha="4222.7236313375042" sparseCutoff="1.0000000000000000"/>
      <sparseX i="156" alpha="1605.7714246646403" sparseCutoff="1.0000000000000000"/>
      <sparseX i="157" alpha="-1351.9183560098270" sparseCutoff="1.0000000000000000"/>
      <sparseX i="158" alpha="15114.749755067904" sparseCutoff="1.0000000000000000"/>
      <sparseX i="159" alpha="1368.5661307022940" sparseCutoff="1.0000000000000000"/>
      <sparseX i="160" alpha="-1128.6822861807264" sparseCutoff="1.0000000000000000"/>
      <sparseX i="161" alpha="703.35363083544814" sparseCutoff="1.0000000000000000"/>
      <sparseX i="162" alpha="15201.760973117021" sparseCutoff="1.0000000000000000"/>
      <sparseX i="163" alpha="-2882.6055272500594" sparseCutoff="1.0000000000000000"/>
      <sparseX i="164" alpha="638.40150930741345" sparseCutoff="1.0000000000000000"/>
      <sparseX i="165" alpha="1871.7130572483356" sparseCutoff="1.0000000000000000"/>
      <sparseX i="166" alpha="3675.9196147190173" sparseCutoff="1.0000000000000000"/>
      <sparseX i="167" alpha="-6060.2430772573352" sparseCutoff="1.0000000000000000"/>
      <sparseX i="168" alpha="-656.66763640675742" sparseCutoff="1.0000000000000000"/>
      <sparseX i="169" alpha="-8667.1912565199182" sparseCutoff="1.0000000000000000"/>
      <sparseX i="170" alpha="882.69637370791565" sparseCutoff="1.0000000000000000"/>
      <sparseX i="171" alpha="1185.5998043725708" sparseCutoff="1.0000000000000000"/>
      <sparseX i="172" alpha="2702.1473701509917" sparseCutoff="1.0000000000000000"/>
      <sparseX i="173" alpha="1762.6342430748346" sparseCutoff="1.0000000000000000"/>
      <sparseX i="174" alpha="1292.8878761892272" sparseCutoff="1.0000000000000000"/>
      <sparseX i="175" alpha="-230.96554088972977" sparseCutoff="1.0000000000000000"/>
      <sparseX i="176" alpha="-5734.2888815721162" sparseCutoff="1.0000000000000000"/>
      <sparseX i="177" alpha="403.00838122605859" sparseCutoff="1.0000000000000000"/>
      <sparseX i="178" alpha="-129.59205368988830" sparseCutoff="1.0000000000000000"/>
      <sparseX i="179" alpha="1983.8531876154393" sparseCutoff="1.0000000000000000"/>
      <sparseX i="180" alpha="991.93720856220716" sparseCutoff="1.0000000000000000"/>
      <sparseX i="181" alpha="1355.8676708906885" sparseCutoff="1.0000000000000000"/>
      <sparseX i="182" alpha="364.94550891260849" sparseCutoff="1.0000000000000000"/>
      <sparseX i="183" alpha="-192.89719174250678" sparseCutoff="1.0000000000000000"/>
      <sparseX i="184" alpha="-3227.5719952182044" sparseCutoff="1.0000000000000000"/>
      <sparseX i="185" alpha="-2662.1777404019526" sparseCutoff="1.0000000000000000"/>
      <sparseX i="186" alpha="-678.88123189649389" sparseCutoff="1.0000000000000000"/>
      <sparseX i="187" alpha="-383.87330346453166" sparseCutoff="1.0000000000000000"/>
      <sparseX i="188" alpha="-250.52773069762193" sparseCutoff="1.0000000000000000"/>
      <sparseX i="189" alpha="1439.0462036552251" sparseCutoff="1.0000000000000000"/>
      <sparseX i="190" alpha="577.97006383823123" sparseCutoff="1.0000000000000000"/>
      <sparseX i="191" alpha="-1565.6425755084015" sparseCutoff="1.0000000000000000"/>
      <sparseX i="192" alpha="-3.4652870203313051" sparseCutoff="1.0000000000000000"/>
      <sparseX i="193" alpha="564.72736136019512" sparseCutoff="1.0000000000000000"/>
      <sparseX i="194" alpha="1103.6375426770053" sparseCutoff="1.0000000000000000"/>
      <sparseX i="195" alpha="260.46209138314111" sparseCutoff="1.0000000000000000"/>
      <sparseX i="196" alpha="-2282.7278906454280" sparseCutoff="1.0000000000000000"/>
      <sparseX i="197" alpha="1079.5522898157972" sparseCutoff="1.0000000000000000"/>
      <sparseX i="198" alpha="1525.6347014518383" sparseCutoff="1.0000000000000000"/>
      <sparseX i="199" alpha="-136.17854287740909" sparseCutoff="1.0000000000000000"/>
      <sparseX i="200" alpha="1161.0399670481288" sparseCutoff="1.0000000000000000"/>
    </gpCoordinates>
  </gpSparse>
  <command_line><![CDATA[ atoms_filename=GAPinput3.xyz gp_file=GAP.xml gap={soap l_max=4 n_max=4 covariance_type=dot_product zeta=4 delta=0.2 cutoff=4 atom_sigma=0.5 n_sparse=200} default_sigma={0.002 0.1 0.1 0.0} e0=Li:-.29849279 e0=P:-1.8869919 e0=S:-.89046138 e0=Cl:-.25791124]]></command_line>
  <XYZ_data>
    <![CDATA[208]]>
    <![CDATA[energy=-829.9127452 pbc="T T T" Lattice="16.026082 0.0 0.0 0.0 16.1 0.0 0.0 0.0 16.425367" Properties=species:S:1:pos:R:3:Z:I:1:force:R:3]]>
    <![CDATA[Li 11.0025 13.18964 2.94742 3 0.186067 0.324326 -0.361388]]>
    <![CDATA[Li 9.30362 10.67987 0.04896 3 0.024106 0.243968 0.062811]]>
    <![CDATA[Li 10.81349 10.33177 3.37657 3 -0.237914 0.126057 -0.053376]]>
    <![CDATA[Li 13.15758 15.7469 0.32036 3 0.106973 0.092159 0.474798]]>
    <![CDATA[Li 9.34468 12.62902 4.74908 3 -0.136885 0.206815 -0.22752]]>
    <![CDATA[Li 14.41329 12.09687 14.99582 3 0.055345 0.188311 0.276522]]>
    <![CDATA[Li 3.88291 0.82021 0.99694 3 -0.042716 -0.144788 -0.226102]]>
    <![CDATA[Li 3.51189 13.46375 4.78429 3 -0.0641 0.362233 -0.292998]]>
    <![CDATA[Li 1.66838 0.38732 5.72599 3 0.09271 -0.330561 0.01713]]>
    <![CDATA[Li 3.80284 12.07923 0.7048 3 0.014227 0.151764 0.253351]]>
    <![CDATA[Li 1.58611 11.26237 14.83608 3 -0.184043 0.050079 0.185165]]>
    <![CDATA[Li 5.20839 13.41938 6.8951 3 0.280823 -0.036047 -0.028962]]>
    <![CDATA[Li 5.9426 7.92843 9.98715 3 0.006562 -0.024341 0.092403]]>
    <![CDATA[Li 8.40272 12.93929 8.56163 3 0.092964 -0.025377 0.135123]]>
    <![CDATA[Li 11.87538 13.33778 12.66095 3 0.025628 0.289948 -0.110475]]>
    <![CDATA[Li 5.6405 10.25414 7.13072 3 0.155047 0.060038 -0.150646]]>
    <![CDATA[Li 11.36417 8.41338 12.57133 3 -0.051014 -0.279497 -0.33563]]>
    <![CDATA[Li 2.93608 11.44878 10.16045 3 0.070752 0.057181 -0.03586]]>
    <![CDATA[Li 15.19932 14.95957 14.21724 3 0.157302 -0.105921 -0.044306]]>
    <![CDATA[Li 14.98237 7.77488 15.97478 3 -0.147916 -0.043866 -0.178519]]>
    <![CDATA[Li 2.81336 7.30072 11.17077 3 -0.309734 0.420889 0.135425]]>
    <![CDATA[Li 7.89407 14.46908 14.38025 3 -0.205457 0.007527 -0.261548]]>
    <![CDATA[Li 15.86514 10.36498 12.44891 3 -0.047058 0.061642 -0.026723]]>
    <![CDATA[Li 13.51755 9.27848 14.00004 3 0.199244 -0.250157 -0.077641]]>
    <![CDATA[Li 5.74938 7.92622 14.24095 3 0.214325 0.020471 0.136341]]>
    <![CDATA[Li 1.25236 8.32558 14.27264 3 0.060651 -0.152976 0.021719]]>
    <![CDATA[Li 3.83204 9.88767 13.44203 3 -0.302656 -0.396269 0.266208]]>
    <![CDATA[Li 6.6303 11.0492 15.09002 3 -0.276952 -0.238055 -0.064504]]>
    <![CDATA[Li 1.10111 4.93236 11.59199 3 0.395867 0.788895 -0.533018]]>
    <![CDATA[Li 8.1282 10.55603 12.29651 3 0.005038 -0.063226 0.112971]]>
    <![CDATA[Li 4.04969 4.49724 0.80039 3 -0.074333 -0.267646 -0.042996]]>
    <![CDATA[Li 5.85818 2.31195 2.44189 3 0.1562 -0.095042 0.486035]]>
    <![CDATA[Li 7.27945 1.02377 0.03332 3 0.380005 -0.026288 -0.102113]]>
    <![CDATA[Li 6.98258 5.01454 0.97946 3 -0.026026 0.032794 -0.202054]]>
    <![CDATA[Li 10.51579 6.1545 3.4622 3 -0.394356 0.105444 -0.040999]]>
    <![CDATA[Li 1.13107 2.69508 2.30925 3 0.37388 -0.199139 -0.432713]]>
    <![CDATA[Li 13.01238 1.72509 7.97342 3 -0.377522 0.104091 -0.157922]]>
    <![CDATA[Li 13.09626 4.79944 10.93998 3 0.045159 0.048507 -0.178075]]>
    <![CDATA[Li 10.10239 0.07068 15.24433 3 -0.294891 0.162309 -0.044194]]>
    <![CDATA[Li 9.67349 5.02373 11.58956 3 0.015976 -0.170608 0.088074]]>
    <![CDATA[Li 13.92936 2.94769 13.63287 3 -0.23272 -0.283696 -0.174713]]>
    <![CDATA[Li 11.94119 5.29714 14.16972 3 0.096157 0.120625 -0.204162]]>
    <![CDATA[Li 7.62715 3.53298 5.65536 3 0.086668 -0.279609 0.108118]]>
    <![CDATA[Li 3.95631 0.358 12.2352 3 -0.291 -0.018637 -0.020525]]>
    <![CDATA[Li 5.07894 1.54738 5.70916 3 -0.042264 -0.158654 0.238505]]>
    <![CDATA[Li 15.75188 2.98294 10.40722 3 0.326663 -0.092012 -0.040517]]>
    <![CDATA[Li 6.77569 0.62835 8.5639 3 -0.320949 -0.016196 -0.37118]]>
    <![CDATA[Li 15.12196 5.14316 6.75199 3 -0.086974 -0.016088 0.235875]]>
    <![CDATA[Li 5.98781 6.86235 6.47423 3 0.388 -0.152155 -0.305773]]>
    <![CDATA[Li 0.29494 3.41595 4.63394 3 -0.297221 0.357224 0.212145]]>
    <![CDATA[Li 2.85243 4.23303 5.13669 3 -0.04833 0.040388 -0.267588]]>
    <![CDATA[Li 15.62528 6.47237 3.68347 3 0.10431 -0.179813 -0.053136]]>
    <![CDATA[Li 2.40433 7.50197 5.51897 3 -0.322762 0.186479 -0.660148]]>
    <![CDATA[Li 4.50323 7.8004 3.25985 3 0.248785 0.076888 -0.115514]]>
    <![CDATA[Li 12.6884 9.93866 5.14715 3 -0.331288 0.296792 0.204879]]>
    <![CDATA[Li 1.8291 9.55175 1.38224 3 0.142295 0.134953 -0.323788]]>
    <![CDATA[Li 12.97921 7.52688 2.02935 3 -0.010851 0.06555 -0.263432]]>
    <![CDATA[Li 0.87747 11.5242 4.74839 3 -0.072164 -0.210369 0.142058]]>
    <![CDATA[Li 15.07322 10.54885 1.00939 3 0.10994 0.294714 -0.283184]]>
    <![CDATA[Li 1.94089 6.44879 7.7869 3 -0.132163 -0.220414 0.218812]]>
    <![CDATA[Li 6.89613 0.38198 12.39074 3 -0.191875 -0.262291 -0.330305]]>
    <![CDATA[Li 5.1332 15.47146 15.02832 3 -0.07947 0.096205 0.372162]]>
    <![CDATA[Li 5.79397 14.61137 10.55757 3 -0.021823 -0.171914 0.10754]]>
    <![CDATA[Li 1.2474 13.48552 11.84515 3 -0.174288 -0.264464 0.02332]]>
    <![CDATA[Li 3.33374 13.79009 14.09493 3 -0.108207 0.214312 -0.123234]]>
    <![CDATA[Li 4.938 12.17422 12.027 3 0.354131 0.133045 0.157325]]>
    <![CDATA[Li 0.78891 13.38084 7.38036 3 0.79313 0.054214 0.256387]]>
    <![CDATA[Li 14.24297 14.97139 7.96425 3 0.174344 -0.810783 0.155011]]>
    <![CDATA[Li 13.72001 13.15439 4.58843 3 0.162405 0.089806 -0.249358]]>
    <![CDATA[Li 14.3922 11.86939 8.71705 3 0.086227 0.000761 -0.177181]]>
    <![CDATA[Li 12.55069 12.6931 7.01004 3 0.236544 -0.331874 -0.082991]]>
    <![CDATA[Li 12.15115 1.4729 11.63703 3 0.156357 -0.111246 -0.321175]]>
    <![CDATA[Li 0.07401 5.44489 14.18265 3 -0.129953 0.298867 -0.225999]]>
    <![CDATA[Li 6.19034 2.85216 14.37949 3 0.083638 0.020396 0.042121]]>
    <![CDATA[Li 1.98336 2.79921 13.82235 3 0.159259 -0.14869 0.075473]]>
    <![CDATA[Li 4.48674 5.50424 12.79041 3 -0.13872 -0.147362 0.153791]]>
    <![CDATA[Li 1.74788 14.21065 1.07561 3 -0.574016 0.023329 0.094186]]>
    <![CDATA[Li 3.24116 7.38833 15.7334 3 -0.224367 0.156444 -0.122812]]>
    <![CDATA[Li 9.44765 6.95885 6.649 3 -0.030235 0.217537 -0.027563]]>
    <![CDATA[Li 8.35397 9.11766 2.05678 3 -0.116166 -0.003488 0.191932]]>
    <![CDATA[Li 11.20203 3.6724 5.18485 3 0.578072 -0.20815 0.00577]]>
    <![CDATA[Li 8.44317 9.25708 5.03214 3 0.045281 0.301112 0.051944]]>
    <![CDATA[Li 6.97257 11.55453 4.04472 3 -0.138033 0.164733 -0.074251]]>
    <![CDATA[Li 12.3698 6.92374 5.79273 3 -0.341803 0.325154 0.370158]]>
    <![CDATA[Li 13.29773 0.5933 4.10074 3 0.068459 0.825609 0.519019]]>
    <![CDATA[Li 8.30761 13.88369 2.12055 3 -0.096237 -0.236821 0.099507]]>
    <![CDATA[Li 10.47639 10.77487 6.65422 3 0.239019 -0.249634 -0.007125]]>
    <![CDATA[Li 11.40059 14.99765 5.27347 3 -0.287788 -0.056987 -0.212058]]>
    <![CDATA[Li 7.57323 0.24028 4.13925 3 0.45155 -0.107743 0.008002]]>
    <![CDATA[Li 8.78386 15.23675 6.15196 3 0.186382 -0.054311 0.005602]]>
    <![CDATA[Li 6.33501 3.54918 11.54527 3 -0.158837 -0.023714 0.641167]]>
    <![CDATA[Li 13.15044 8.49074 9.31102 3 0.118397 0.189842 -0.102049]]>
    <![CDATA[Li 9.43241 1.63599 12.13643 3 -0.113292 0.169029 -0.290086]]>
    <![CDATA[Li 3.41869 3.05623 10.61156 3 0.118548 -0.107681 -0.276914]]>
    <![CDATA[Li 9.25696 1.82962 7.70899 3 0.263515 -0.597041 0.081063]]>
    <![CDATA[Li 9.98223 3.06517 14.31811 3 -0.11135 -0.07923 -0.157077]]>
    <![CDATA[P 11.29232 14.96281 9.29969 15 -1.613946 0.146977 0.024471]]>
    <![CDATA[P 10.14618 11.11906 10.29718 15 -0.494347 -0.565938 -1.083351]]>
    <![CDATA[P 5.56117 4.57551 3.77832 15 -0.553083 0.837406 -0.999734]]>
    <![CDATA[P 3.38755 15.29258 8.54028 15 0.056795 -0.013041 -0.671934]]>
    <![CDATA[P 14.89037 9.103 6.12584 15 0.751646 0.136175 -0.034942]]>
    <![CDATA[P 14.53632 7.07062 11.88107 15 0.249156 0.645871 0.035423]]>
    <![CDATA[P 8.3467 5.24107 9.2638 15 -0.595511 -0.357894 -0.778765]]>
    <![CDATA[P 1.57457 9.76057 8.55431 15 0.458027 -0.982006 -0.374665]]>
    <![CDATA[P 9.71069 1.77634 4.15864 15 0.187427 -0.389334 -0.706302]]>
    <![CDATA[P 12.50175 0.05878 13.98573 15 -0.025831 0.177975 -0.079616]]>
    <![CDATA[P 14.58563 13.65375 1.87707 15 0.10654 -0.15318 0.095357]]>
    <![CDATA[P 5.51435 8.44042 0.80829 15 -0.736987 0.721327 -0.492188]]>
    <![CDATA[P 13.63811 4.13869 3.08678 15 -0.772951 -0.617998 0.386736]]>
    <![CDATA[P 10.79808 7.52122 16.16855 15 0.928274 -1.725202 1.211874]]>
    <![CDATA[P 4.26959 10.68625 4.35858 15 0.028959 -0.272506 -0.641193]]>
    <![CDATA[P 7.99492 6.55256 13.7705 15 -1.16837 -0.006635 0.720409]]>
    <![CDATA[S 11.19668 0.91787 9.35565 16 -0.0939 -0.392432 -0.015955]]>
    <![CDATA[S 10.75599 14.07601 7.49997 16 -0.114916 0.518657 0.233322]]>
    <![CDATA[S 9.57746 14.16845 10.60053 16 0.380332 -0.003774 -0.632761]]>
    <![CDATA[S 12.88209 14.18826 10.1407 16 0.993157 -0.409128 0.186661]]>
    <![CDATA[S 10.9768 10.90014 12.08509 16 -0.041547 0.014267 0.36932]]>
    <![CDATA[S 11.58722 12.10819 4.91944 16 0.646179 -0.455817 0.251244]]>
    <![CDATA[S 8.09409 15.52868 10.23821 16 -0.163458 0.057044 0.3243]]>
    <![CDATA[S 8.15533 11.11326 7.02389 16 -0.169943 0.187686 -0.456128]]>
    <![CDATA[S 6.7353 6.46614 3.10482 16 -0.688493 -1.10687 -0.180018]]>
    <![CDATA[S 5.54675 4.66035 5.80705 16 -0.14235 -0.60801 0.361739]]>
    <![CDATA[S 2.07933 2.13107 4.34041 16 0.607628 -0.257187 -0.129138]]>
    <![CDATA[S 3.75889 5.51781 3.07237 16 0.264021 -0.615731 0.162561]]>
    <![CDATA[S 3.96605 15.46216 6.46841 16 -0.410089 0.165009 0.460817]]>
    <![CDATA[S 4.45593 0.69528 9.53792 16 -0.238201 -0.477345 0.249521]]>
    <![CDATA[S 4.24728 13.44739 9.0258 16 -0.260824 0.173472 0.543116]]>
    <![CDATA[S 1.3624 15.36905 8.78877 16 0.662475 0.050578 -0.215806]]>
    <![CDATA[S 14.28166 7.45039 7.18654 16 -0.119665 -0.069763 -0.165611]]>
    <![CDATA[S 10.73455 8.54574 4.98987 16 0.359769 -0.00125 0.683392]]>
    <![CDATA[S 0.99903 9.46644 6.36679 16 -0.915889 0.165645 -0.325488]]>
    <![CDATA[S 10.79828 5.06533 6.93895 16 1.319654 0.49744 0.017916]]>
    <![CDATA[S 13.81328 6.85823 13.87435 16 -0.095665 -0.528031 -0.318318]]>
    <![CDATA[S 0.5942 7.30204 12.31078 16 -0.143425 -0.736729 0.343175]]>
    <![CDATA[S 13.8626 9.11868 11.4981 16 0.00349 -0.376399 0.322467]]>
    <![CDATA[S 10.86963 7.68485 9.10651 16 0.121656 0.003089 -0.204305]]>
    <![CDATA[S 9.40107 9.09905 9.4414 16 0.08418 0.931501 0.473365]]>
    <![CDATA[S 7.425 6.89301 8.3609 16 0.400698 -0.245839 0.200565]]>
    <![CDATA[S 6.72005 3.80671 9.35729 16 0.076341 0.214676 -0.490971]]>
    <![CDATA[S 9.12534 4.10932 7.4714 16 -0.743324 0.490176 0.751273]]>
    <![CDATA[S 0.65528 11.44619 9.24286 16 -0.330314 0.617311 0.541408]]>
    <![CDATA[S 5.65268 10.39309 9.49878 16 -0.316379 -0.084318 0.380653]]>
    <![CDATA[S 0.82881 8.03845 9.35962 16 0.393858 0.132696 0.016621]]>
    <![CDATA[S 2.67351 11.71129 12.71077 16 -0.341942 0.240688 -0.019452]]>
    <![CDATA[S 7.40758 1.09162 6.36921 16 -0.386409 0.126998 -0.210526]]>
    <![CDATA[S 11.23104 1.62001 2.44488 16 0.243068 0.112366 0.165856]]>
    <![CDATA[S 11.05724 1.30282 5.7782 16 -0.564948 0.393608 -0.112007]]>
    <![CDATA[S 9.28151 3.79922 3.90484 16 -0.209916 0.294581 0.192769]]>
    <![CDATA[S 12.1216 1.52464 15.44392 16 0.269678 -0.49272 -0.086365]]>
    <![CDATA[S 10.8207 15.91382 12.8532 16 0.296433 -0.469545 -0.056835]]>
    <![CDATA[S 12.66727 14.31149 14.92224 16 -0.251242 0.196798 -0.133456]]>
    <![CDATA[S 14.12785 0.57774 12.83973 16 -0.275379 -0.025948 0.39275]]>
    <![CDATA[S 13.11838 15.00361 2.75048 16 -0.292675 -1.026088 -0.517858]]>
    <![CDATA[S 14.64957 9.34422 3.89183 16 0.212984 0.11673 0.31759]]>
    <![CDATA[S 15.47111 14.87397 0.36708 16 0.309699 0.031617 0.089409]]>
    <![CDATA[S 13.33006 12.1814 0.95774 16 -0.012378 -0.023711 -0.130027]]>
    <![CDATA[S 5.90461 9.34325 4.60745 16 -0.538266 0.612542 0.256302]]>
    <![CDATA[S 7.29485 9.10126 16.3185 16 0.123294 -0.049811 -0.018274]]>
    <![CDATA[S 3.92274 9.74185 16.16338 16 0.356906 -0.05697 0.57638]]>
    <![CDATA[S 5.25897 6.59639 16.27719 16 0.569839 -0.646374 0.294425]]>
    <![CDATA[S 13.87263 2.86177 4.59744 16 -0.05896 0.199341 0.860703]]>
    <![CDATA[S 11.9551 3.46771 1.88411 16 -0.519382 -0.121987 -0.252392]]>
    <![CDATA[S 15.31915 4.26614 2.08909 16 0.783219 0.862711 -0.882028]]>
    <![CDATA[S 12.89274 5.96828 3.77427 16 0.646457 -0.195229 -0.178681]]>
    <![CDATA[S 10.53443 8.09693 1.74352 16 -0.156419 -0.05405 -0.464799]]>
    <![CDATA[S 9.39344 5.94719 15.42523 16 0.608178 0.470941 0.141406]]>
    <![CDATA[S 12.47233 6.24157 16.35313 16 -0.582562 0.46161 0.438543]]>
    <![CDATA[S 11.12837 9.09185 15.02254 16 -0.302953 0.934455 -0.503231]]>
    <![CDATA[S 2.71055 9.51776 3.53929 16 0.583019 0.014046 0.992292]]>
    <![CDATA[S 4.83122 12.1744 3.04423 16 -0.163258 -0.0547 0.424978]]>
    <![CDATA[S 7.49334 13.00133 6.1303 16 -0.24134 -0.653616 0.303283]]>
    <![CDATA[S 3.71268 11.57747 6.16337 16 0.263455 -0.757237 -0.285793]]>
    <![CDATA[S 7.92708 4.49692 13.20071 16 0.201739 0.033269 -0.009705]]>
    <![CDATA[S 11.23204 6.43199 10.67516 16 0.674103 0.062505 0.093952]]>
    <![CDATA[S 8.1048 1.19785 14.03823 16 0.007958 0.267729 0.811053]]>
    <![CDATA[S 8.89866 7.74589 12.46517 16 0.275859 0.458803 -0.576848]]>
    <![CDATA[S 8.82923 11.42262 2.64627 16 0.161382 -0.204515 -0.397085]]>
    <![CDATA[S 3.69871 14.51312 0.06266 16 0.382166 0.124925 -0.362146]]>
    <![CDATA[S 7.01543 11.73935 10.31641 16 0.341803 0.074446 0.01923]]>
    <![CDATA[S 15.54825 9.94907 15.01174 16 0.226775 0.311645 -0.016123]]>
    <![CDATA[S 3.56252 7.56881 13.49947 16 -0.467808 -0.249489 -0.697692]]>
    <![CDATA[S 5.95754 2.88359 0.34739 16 -0.228925 0.300015 -0.234912]]>
    <![CDATA[S 11.65708 3.60325 12.43264 16 -0.312844 0.210596 0.435977]]>
    <![CDATA[S 4.30418 2.93139 12.71742 16 -0.022883 -0.198104 0.289775]]>
    <![CDATA[S 0.93377 5.6106 5.50305 16 0.095138 0.157838 0.255802]]>
    <![CDATA[S 15.4459 8.43886 2.10144 16 0.008881 -0.219212 0.290257]]>
    <![CDATA[S 5.46734 14.55722 13.06877 16 0.296382 0.036968 -0.850258]]>
    <![CDATA[S 14.86049 13.02596 6.60525 16 -1.298264 -0.214111 0.359283]]>
    <![CDATA[S 15.98397 3.51255 12.68763 16 -0.107976 -0.203581 0.741178]]>
    <![CDATA[S 8.29314 6.95364 4.29628 16 0.368385 0.380199 0.209847]]>
    <![CDATA[S 9.46715 14.83071 3.82928 16 0.08627 0.089387 0.274011]]>
    <![CDATA[S 7.72742 2.09111 10.11822 16 0.139182 0.288841 0.026348]]>
    <![CDATA[Cl 8.51599 14.99932 0.12919 17 -0.072378 0.129657 0.016752]]>
    <![CDATA[Cl 5.92517 16.04154 2.67224 17 -0.321069 0.555249 -0.045635]]>
    <![CDATA[Cl 4.00848 7.49536 7.03816 17 -0.499234 0.323847 0.519859]]>
    <![CDATA[Cl 8.53678 12.12303 14.56353 17 0.090913 -0.07656 -0.069376]]>
    <![CDATA[Cl 5.94434 10.08317 13.00469 17 0.632754 0.195959 0.240855]]>
    <![CDATA[Cl 2.27517 2.75781 0.07591 17 0.019688 -0.046922 0.187642]]>
    <![CDATA[Cl 14.09355 3.39417 8.93116 17 0.066593 0.613361 0.199652]]>
    <![CDATA[Cl 1.78077 4.03599 9.41221 17 -0.391214 0.157817 0.158852]]>
    <![CDATA[Cl 1.48526 11.88197 1.18303 17 -0.331297 -0.362471 -0.342249]]>
    <![CDATA[Cl 1.31555 13.7021 4.48499 17 0.169613 0.405456 -0.132104]]>
    <![CDATA[Cl 1.6443 15.45285 12.74768 17 0.396817 0.315903 0.342953]]>
    <![CDATA[Cl 15.03233 12.91751 12.81648 17 0.127309 -0.262438 -0.056233]]>
    <![CDATA[Cl 1.06657 6.80343 16.17713 17 -0.143024 -0.220629 -0.082966]]>
    <![CDATA[Cl 12.43006 10.6449 8.42249 17 -0.061178 0.211866 -0.233788]]>
    <![CDATA[Cl 14.1755 0.48594 6.60247 17 0.322398 0.150892 -0.442509]]>
    <![CDATA[Cl 4.54316 5.99774 10.56825 17 0.186671 0.238036 -0.31374]]>
    <![CDATA[208]]>
    <![CDATA[energy=-829.99761496 pbc="T T T" Lattice="16.026082 0.0 0.0 0.0 16.1 0.0 0.0 0.0 16.425367" Properties=species:S:1:pos:R:3:Z:I:1:force:R:3]]>
    <![CDATA[Li 11.01817 13.16788 2.96674 3 0.123456 0.409804 -0.335241]]>
    <![CDATA[Li 9.30084 10.7286 0.07597 3 0.008075 0.206562 -0.047903]]>
    <![CDATA[Li 10.71829 10.29462 3.33051 3 0.076967 -0.035187 0.164177]]>
    <![CDATA[Li 13.16732 15.73088 0.36905 3 0.074174 0.076898 0.219993]]>
    <![CDATA[Li 9.32432 12.66121 4.695 3 -0.234074 0.122401 0.039493]]>
    <![CDATA[Li 14.35936 12.17847 14.97162 3 0.185072 0.049538 0.175457]]>
    <![CDATA[Li 3.89272 0.75461 0.89576 3 -0.108234 0.037973 -0.025096]]>
    <![CDATA[Li 3.5014 13.38975 4.69216 3 0.018876 0.501964 -0.084344]]>
    <![CDATA[Li 1.77215 0.23946 5.83846 3 -0.073053 0.090694 -0.271125]]>
    <![CDATA[Li 3.84409 12.1122 0.67221 3 -0.052016 0.091328 0.294909]]>
    <![CDATA[Li 1.55595 11.18105 14.91757 3 -0.070276 0.148361 0.000717]]>
    <![CDATA[Li 5.22807 13.44821 6.88819 3 0.118875 -0.006527 0.048967]]>
    <![CDATA[Li 5.99955 7.86995 9.96738 3 -0.18278 0.080419 0.162502]]>
    <![CDATA[Li 8.39671 12.87765 8.55609 3 0.129237 0.074089 0.162326]]>
    <![CDATA[Li 11.89926 13.42484 12.64405 3 0.003809 0.190412 -0.221919]]>
    <![CDATA[Li 5.67899 10.3129 7.11644 3 0.147261 -0.037525 -0.190524]]>
    <![CDATA[Li 11.40711 8.50808 12.5845 3 -0.118208 -0.365051 -0.386164]]>
    <![CDATA[Li 2.90459 11.37837 10.15797 3 0.173173 0.136187 0.039182]]>
    <![CDATA[Li 15.21136 14.93782 14.26772 3 0.120575 -0.083442 -0.178883]]>
    <![CDATA[Li 14.91094 7.76424 15.94995 3 -0.028019 -0.030762 -0.026908]]>
    <![CDATA[Li 2.78868 7.2969 11.18355 3 -0.121389 0.35022 0.066187]]>
    <![CDATA[Li 7.95271 14.47589 14.39153 3 -0.272634 0.021823 -0.373626]]>
    <![CDATA[Li 15.81177 10.17875 12.49139 3 0.062616 0.196191 -0.078077]]>
    <![CDATA[Li 13.52937 9.2567 14.01779 3 0.091111 -0.224916 -0.116589]]>
    <![CDATA[Li 5.76348 7.88973 14.31682 3 0.119704 0.138113 0.010097]]>
    <![CDATA[Li 1.20193 8.29258 14.32024 3 0.153516 -0.198368 -0.143065]]>
    <![CDATA[Li 3.82442 9.89591 13.49143 3 -0.080512 -0.523464 0.200719]]>
    <![CDATA[Li 6.5644 11.09485 15.04401 3 -0.159519 -0.326797 0.105335]]>
    <![CDATA[Li 1.05247 4.98664 11.54763 3 0.315429 0.495324 -0.296242]]>
    <![CDATA[Li 8.14802 10.44115 12.32759 3 0.14555 -0.004431 -0.002207]]>
    <![CDATA[Li 4.05366 4.53321 0.76642 3 -0.045164 -0.343174 -0.02162]]>
    <![CDATA[Li 5.7596 2.31816 2.46538 3 0.168786 0.158984 -0.001677]]>
    <![CDATA[Li 7.3738 1.11032 16.35246 3 0.242306 0.100008 -0.020771]]>
    <![CDATA[Li 6.99207 4.98244 0.9463 3 0.001569 0.087152 -0.102652]]>
    <![CDATA[Li 10.47196 6.12426 3.35631 3 -0.278584 0.087693 0.097942]]>
    <![CDATA[Li 1.11756 2.6595 2.20703 3 0.442898 -0.26633 -0.08084]]>
    <![CDATA[Li 12.97409 1.70279 7.83247 3 -0.389075 0.562101 0.230335]]>
    <![CDATA[Li 13.17581 4.83607 10.9169 3 -0.085217 0.01277 -0.157227]]>
    <![CDATA[Li 10.15654 0.13375 15.23878 3 -0.576274 0.078065 -0.05932]]>
    <![CDATA[Li 9.79561 5.09881 11.58003 3 -0.447379 -0.452923 0.217747]]>
    <![CDATA[Li 13.91403 2.95165 13.52074 3 -0.14576 -0.275108 -0.095472]]>
    <![CDATA[Li 11.94696 5.24234 14.16664 3 0.097054 0.227768 -0.128875]]>
    <![CDATA[Li 7.65984 3.41506 5.65433 3 -0.157326 -0.091434 0.004418]]>
    <![CDATA[Li 3.89928 0.33893 12.22009 3 -0.165392 -0.006591 -0.007468]]>
    <![CDATA[Li 5.02605 1.45827 5.82002 3 0.114119 0.042166 0.173]]>
    <![CDATA[Li 15.70723 3.03833 10.4677 3 0.355163 -0.205755 -0.183534]]>
    <![CDATA[Li 6.74527 0.55032 8.5366 3 -0.152163 0.086946 -0.277903]]>
    <![CDATA[Li 15.2239 5.1957 6.75433 3 -0.481913 -0.129537 0.504528]]>
    <![CDATA[Li 5.99376 6.80053 6.46225 3 0.331645 0.025155 -0.133662]]>
    <![CDATA[Li 0.21049 3.41199 4.56094 3 0.057708 0.214905 0.183795]]>
    <![CDATA[Li 2.73323 4.23332 5.03733 3 0.254235 0.036029 -0.173024]]>
    <![CDATA[Li 15.54531 6.46091 3.82653 3 0.065119 -0.04514 -0.261573]]>
    <![CDATA[Li 2.30273 7.51821 5.46165 3 0.172954 0.268636 -0.327509]]>
    <![CDATA[Li 4.50228 7.76698 3.26831 3 0.26861 0.216303 -0.019732]]>
    <![CDATA[Li 12.61838 9.84249 5.1283 3 -0.154263 0.394392 0.168123]]>
    <![CDATA[Li 1.90118 9.60746 1.33426 3 0.113306 -0.00884 -0.125795]]>
    <![CDATA[Li 12.91381 7.47915 2.0265 3 0.107977 0.241851 -0.322744]]>
    <![CDATA[Li 0.87868 11.53798 4.81234 3 -0.13928 -0.206856 0.201492]]>
    <![CDATA[Li 15.11961 10.63766 1.0102 3 0.228571 -0.036152 -0.226123]]>
    <![CDATA[Li 1.86346 6.3998 7.74262 3 0.116697 -0.113081 0.256421]]>
    <![CDATA[Li 6.8624 0.29159 12.3859 3 0.15672 0.122213 -0.004834]]>
    <![CDATA[Li 5.06133 15.46381 15.17058 3 0.574265 0.108295 -0.663824]]>
    <![CDATA[Li 5.84661 14.54749 10.63854 3 -0.091928 -0.170584 -0.10739]]>
    <![CDATA[Li 1.29059 13.35923 11.89418 3 -0.291614 0.046056 0.042632]]>
    <![CDATA[Li 3.26019 13.84181 14.16987 3 -0.071106 0.148703 -0.401622]]>
    <![CDATA[Li 4.93972 12.18015 12.08974 3 0.279987 0.162815 0.097152]]>
    <![CDATA[Li 0.88387 13.3752 7.42434 3 0.308282 -0.038504 0.111187]]>
    <![CDATA[Li 14.15274 14.8429 7.94139 3 0.180428 -0.2926 0.007395]]>
    <![CDATA[Li 13.69373 13.09498 4.54697 3 0.205089 0.061822 -0.088334]]>
    <![CDATA[Li 14.40136 11.86673 8.72226 3 0.00714 0.022214 -0.196929]]>
    <![CDATA[Li 12.56119 12.68097 6.97114 3 0.093026 -0.366636 -0.011824]]>
    <![CDATA[Li 12.19535 1.41689 11.64164 3 0.120293 0.004638 -0.427513]]>
    <![CDATA[Li 0.0964 5.46584 14.30411 3 -0.102428 0.096174 -0.421693]]>
    <![CDATA[Li 6.11185 2.94252 14.28373 3 0.225169 -0.127831 0.265235]]>
    <![CDATA[Li 1.96458 2.7954 13.84989 3 0.252521 -0.132886 0.064924]]>
    <![CDATA[Li 4.61528 5.52779 12.74483 3 -0.292926 -0.18089 0.304543]]>
    <![CDATA[Li 1.75599 14.18688 1.03919 3 -0.829071 0.079442 0.207218]]>
    <![CDATA[Li 3.25659 7.38878 15.67029 3 -0.260739 0.071317 0.172207]]>
    <![CDATA[Li 9.44837 6.99811 6.6444 3 -0.019606 0.045798 0.006826]]>
    <![CDATA[Li 8.30055 9.13867 1.97003 3 0.003994 -0.065942 0.520597]]>
    <![CDATA[Li 11.20107 3.71105 5.18743 3 0.562787 -0.134717 0.135646]]>
    <![CDATA[Li 8.40467 9.34138 5.00724 3 0.107072 0.098998 0.03023]]>
    <![CDATA[Li 6.90498 11.54238 3.96231 3 0.051555 0.111406 0.139213]]>
    <![CDATA[Li 12.38116 6.98246 5.81236 3 -0.439719 0.023292 0.209539]]>
    <![CDATA[Li 13.33156 0.67352 4.26353 3 -0.021453 0.175909 0.194675]]>
    <![CDATA[Li 8.31142 13.74119 2.05668 3 0.093189 0.169049 0.249945]]>
    <![CDATA[Li 10.45766 10.65265 6.69059 3 0.249842 -0.09867 -0.045358]]>
    <![CDATA[Li 11.34136 14.96394 5.23844 3 -0.124799 0.00231 -0.075332]]>
    <![CDATA[Li 7.48267 0.23279 4.12999 3 0.821843 -0.110745 0.321672]]>
